{"learner":{"attributes":{"best_iteration":"146","best_score":"0.01784"},"feature_names":["focus_switch_rate","idle_time_percent","main_keystrokes","main_mouse_events","helper_keystrokes","helper_mouse_events","entertain_keystrokes","entertain_mouse_events"],"feature_types":["int","float","float","float","float","float","float","float"],"gradient_booster":{"model":{"cats":{"enc":[],"feature_segments":[],"sorted_idx":[]},"gbtree_model_param":{"num_parallel_tree":"1","num_trees":"985"},"iteration_indptr":[0,5,10,15,20,25,30,35,40,45,50,55,60,65,70,75,80,85,90,95,100,105,110,115,120,125,130,135,140,145,150,155,160,165,170,175,180,185,190,195,200,205,210,215,220,225,230,235,240,245,250,255,260,265,270,275,280,285,290,295,300,305,310,315,320,325,330,335,340,345,350,355,360,365,370,375,380,385,390,395,400,405,410,415,420,425,430,435,440,445,450,455,460,465,470,475,480,485,490,495,500,505,510,515,520,525,530,535,540,545,550,555,560,565,570,575,580,585,590,595,600,605,610,615,620,625,630,635,640,645,650,655,660,665,670,675,680,685,690,695,700,705,710,715,720,725,730,735,740,745,750,755,760,765,770,775,780,785,790,795,800,805,810,815,820,825,830,835,840,845,850,855,860,865,870,875,880,885,890,895,900,905,910,915,920,925,930,935,940,945,950,955,960,965,970,975,980,985],"tree_info":[0,1,2,3,4,0,1,2,3,4,0,1,2,3,4,0,1,2,3,4,0,1,2,3,4,0,1,2,3,4,0,1,2,3,4,0,1,2,3,4,0,1,2,3,4,0,1,2,3,4,0,1,2,3,4,0,1,2,3,4,0,1,2,3,4,0,1,2,3,4,0,1,2,3,4,0,1,2,3,4,0,1,2,3,4,0,1,2,3,4,0,1,2,3,4,0,1,2,3,4,0,1,2,3,4,0,1,2,3,4,0,1,2,3,4,0,1,2,3,4,0,1,2,3,4,0,1,2,3,4,0,1,2,3,4,0,1,2,3,4,0,1,2,3,4,0,1,2,3,4,0,1,2,3,4,0,1,2,3,4,0,1,2,3,4,0,1,2,3,4,0,1,2,3,4,0,1,2,3,4,0,1,2,3,4,0,1,2,3,4,0,1,2,3,4,0,1,2,3,4,0,1,2,3,4,0,1,2,3,4,0,1,2,3,4,0,1,2,3,4,0,1,2,3,4,0,1,2,3,4,0,1,2,3,4,0,1,2,3,4,0,1,2,3,4,0,1,2,3,4,0,1,2,3,4,0,1,2,3,4,0,1,2,3,4,0,1,2,3,4,0,1,2,3,4,0,1,2,3,4,0,1,2,3,4,0,1,2,3,4,0,1,2,3,4,0,1,2,3,4,0,1,2,3,4,0,1,2,3,4,0,1,2,3,4,0,1,2,3,4,0,1,2,3,4,0,1,2,3,4,0,1,2,3,4,0,1,2,3,4,0,1,2,3,4,0,1,2,3,4,0,1,2,3,4,0,1,2,3,4,0,1,2,3,4,0,1,2,3,4,0,1,2,3,4,0,1,2,3,4,0,1,2,3,4,0,1,2,3,4,0,1,2,3,4,0,1,2,3,4,0,1,2,3,4,0,1,2,3,4,0,1,2,3,4,0,1,2,3,4,0,1,2,3,4,0,1,2,3,4,0,1,2,3,4,0,1,2,3,4,0,1,2,3,4,0,1,2,3,4,0,1,2,3,4,0,1,2,3,4,0,1,2,3,4,0,1,2,3,4,0,1,2,3,4,0,1,2,3,4,0,1,2,3,4,0,1,2,3,4,0,1,2,3,4,0,1,2,3,4,0,1,2,3,4,0,1,2,3,4,0,1,2,3,4,0,1,2,3,4,0,1,2,3,4,0,1,2,3,4,0,1,2,3,4,0,1,2,3,4,0,1,2,3,4,0,1,2,3,4,0,1,2,3,4,0,1,2,3,4,0,1,2,3,4,0,1,2,3,4,0,1,2,3,4,0,1,2,3,4,0,1,2,3,4,0,1,2,3,4,0,1,2,3,4,0,1,2,3,4,0,1,2,3,4,0,1,2,3,4,0,1,2,3,4,0,1,2,3,4,0,1,2,3,4,0,1,2,3,4,0,1,2,3,4,0,1,2,3,4,0,1,2,3,4,0,1,2,3,4,0,1,2,3,4,0,1,2,3,4,0,1,2,3,4,0,1,2,3,4,0,1,2,3,4,0,1,2,3,4,0,1,2,3,4,0,1,2,3,4,0,1,2,3,4,0,1,2,3,4,0,1,2,3,4,0,1,2,3,4,0,1,2,3,4,0,1,2,3,4,0,1,2,3,4,0,1,2,3,4,0,1,2,3,4,0,1,2,3,4,0,1,2,3,4,0,1,2,3,4,0,1,2,3,4,0,1,2,3,4,0,1,2,3,4,0,1,2,3,4,0,1,2,3,4,0,1,2,3,4,0,1,2,3,4,0,1,2,3,4,0,1,2,3,4,0,1,2,3,4,0,1,2,3,4,0,1,2,3,4,0,1,2,3,4,0,1,2,3,4,0,1,2,3,4,0,1,2,3,4,0,1,2,3,4,0,1,2,3,4,0,1,2,3,4,0,1,2,3,4,0,1,2,3,4,0,1,2,3,4,0,1,2,3,4,0,1,2,3,4,0,1,2,3,4,0,1,2,3,4,0,1,2,3,4,0,1,2,3,4,0,1,2,3,4,0,1,2,3,4,0,1,2,3,4,0,1,2,3,4,0,1,2,3,4,0,1,2,3,4,0,1,2,3,4,0,1,2,3,4,0,1,2,3,4,0,1,2,3,4,0,1,2,3,4,0,1,2,3,4,0,1,2,3,4,0,1,2,3,4,0,1,2,3,4,0,1,2,3,4,0,1,2,3,4,0,1,2,3,4,0,1,2,3,4],"trees":[{"base_weights":[4.7674957E-3,-5.026864E-1,1.9829378E0,-5.747208E-1,1.5013444E-1,2.1301863E0,-1.8147448E-1,-6.0528094E-1,-3.8559228E-1,4.3480113E-1,-4.1528207E-1,2.2173955E0,-2.4930929E-1,5.685545E-1,-5.293089E-1,-6.1655986E-1,-5.565593E-1,-2.2978517E-1,-5.588283E-1,8.4651285E-1,-3.7812546E-1,2.9584664E-1,-5.2952266E-1,1.5082487E0,2.3825362E0,-4.1473472E-1,1.5251634E0,4.133071E-2,1.7389692E0,-5.6447476E-1,3.631538E-1,-4.704182E-2,-4.541795E-2,-5.20006E-1,-4.6477027E-2,1.50557365E-2,-5.535664E-1,-2.5945944E-1,-6.056084E-1,1.1395236E0,-3.832097E-1,1.1835756E-2,-5.8262956E-1,6.8668956E-1,-4.6486443E-1,-3.3533347E-1,-4.5290608E-2,1.7371815E0,5.398683E-2,2.1581192E0,2.4529197E0,1.9852774E-1,-5.6576884E-1,2.0387876E0,-3.819315E-2,4.6184263E-1,-4.511954E-2,1.9722508E0,-4.3828666E-2,-2.3744254E-1,-4.5390934E-2,1.3954793E0,-3.452885E-2,-4.344586E-1,-6.088689E-1,1.9707602E-1,-4.6261212E-1,-3.503605E-1,-4.610412E-2,-1.3789812E-1,-4.2198196E-2,-5.346361E-1,-4.672262E-2,1.3787743E0,-1.7827801E-1,-1.8550336E-2,-4.4793557E-2,3.467985E-1,-4.898175E-1,-3.2270238E-1,-4.5924887E-2,9.211754E-1,-3.7680265E-2,3.0581084E-1,-4.0848862E-2,-5.0224673E-2,-4.9814484E-1,1.814817E0,1.9400677E-1,1.236188E0,-4.0689173E-1,2.1866765E0,4.489202E-1,2.384935E0,1.885739E-1,1.2695738E0,-2.5175752E-2,-3.6028203E-1,-4.5739144E-2,1.6496812E-1,7.197076E-2,1.4560224E-1,1.1573422E0,1.4384669E0,1.7014927E-1,-3.7684727E-1,7.6832217E-1,1.3846794E-1,5.9991125E-3,-2.9185902E-2,-4.5138046E-2,-4.1037377E-2,-4.723464E-2,3.15449E-2,-3.20455E-2,-1.534076E-2,-4.383615E-2,-5.203177E-3,-4.0258612E-2,2.4899837E-2,-2.2489615E-2,-3.0301832E-2,-4.4371784E-2,1.24920994E-1,8.393848E-2,6.7480616E-2,-2.6945949E-2,3.093795E-2,-1.2168038E-2,6.982818E-2,1.241069E-2,-1.5058773E-2,-4.4088203E-2,3.7072316E-2,-3.2924917E-2,9.096086E-2,-1.5564658E-2,6.70263E-2,-3.9169956E-2,4.2118737E-3,-4.0785488E-2,-2.8010588E-2,-4.2466104E-2,1.4448658E-1,6.8856396E-2,8.164282E-2,-1.8306563E-2,1.0751051E-1,-1.3905279E-2,1.1775615E-3,-3.8556945E-2,1.7139867E-1,1.3817579E-1,1.4369543E-1,-2.202685E-2,1.8239973E-1,1.5198655E-1,6.198719E-2,1.4913295E-1,-1.5408911E-2,5.862813E-2,-3.7365604E-2,5.1585734E-3,3.815601E-2,-4.210735E-3,1.3767645E-1,6.6123314E-2,1.3214402E-1,6.745683E-2,-7.919215E-3,-4.3054555E-2,9.449944E-2,2.885184E-3],"categories":[],"categories_nodes":[],"categories_segments":[],"categories_sizes":[],"default_left":[0,0,0,0,0,0,0,0,0,0,0,0,0,0,0,0,0,0,0,0,0,0,0,0,0,0,0,0,0,0,0,0,0,0,0,0,0,0,0,0,0,0,0,0,0,0,0,0,0,0,0,0,0,0,0,0,0,0,0,0,0,0,0,0,0,0,0,0,0,0,0,0,0,0,0,0,0,0,0,0,0,0,0,0,0,0,0,0,0,0,0,0,0,0,0,0,0,0,0,0,0,0,0,0,0,0,0,0,0,0,0,0,0,0,0,0,0,0,0,0,0,0,0,0,0,0,0,0,0,0,0,0,0,0,0,0,0,0,0,0,0,0,0,0,0,0,0,0,0,0,0,0,0,0,0,0,0,0,0,0,0,0,0,0,0,0,0,0,0,0,0,0,0],"id":0,"left_children":[1,3,5,7,9,11,13,15,17,19,21,23,25,27,29,31,33,35,37,39,41,43,45,47,49,51,53,55,57,59,61,-1,-1,63,-1,65,67,69,71,73,75,77,79,81,83,85,-1,87,89,91,93,95,97,99,-1,101,-1,103,-1,105,-1,107,-1,109,111,113,115,117,-1,119,-1,121,-1,123,125,127,-1,129,131,133,-1,135,-1,137,-1,139,141,143,145,147,149,151,153,155,-1,157,159,161,-1,-1,-1,163,165,167,-1,169,171,-1,-1,-1,-1,-1,-1,-1,-1,-1,-1,-1,-1,-1,-1,-1,-1,-1,-1,-1,-1,-1,-1,-1,-1,-1,-1,-1,-1,-1,-1,-1,-1,-1,-1,-1,-1,-1,-1,-1,-1,-1,-1,-1,-1,-1,-1,-1,-1,-1,-1,-1,-1,-1,-1,-1,-1,-1,-1,-1,-1,-1,-1,-1,-1,-1,-1],"loss_changes":[1.0857732E5,4.0480938E3,7.0381016E3,4.4785547E2,1.3772047E3,4.2910156E3,3.6750034E2,3.633203E1,2.910338E2,1.9050148E3,2.3294312E2,2.3321172E3,2.15469E2,2.754015E2,3.0399353E1,3.3613281E0,2.560913E1,4.5036887E2,7.136682E1,1.3617256E3,1.5263922E2,1.184288E2,3.2347046E1,1.2550449E3,2.5020312E2,6.2193207E1,6.6289215E1,8.292492E1,7.606772E1,1.0230133E1,3.1971216E1,0E0,0E0,5.773877E1,0E0,2.814296E2,2.6910767E1,2.4918472E1,3.0186768E0,9.6226196E2,5.5089714E1,1.1097111E2,7.3558655E0,7.34082E1,7.882744E0,2.9768143E1,0E0,3.8987598E2,2.8044385E2,1.8792188E2,2.2890625E1,3.1943737E1,3.9342957E0,5.434326E0,0E0,4.085396E1,0E0,1.5095428E1,0E0,1.2830568E1,0E0,9.298668E0,0E0,3.0757141E1,3.2451172E0,3.1830533E2,2.675476E1,2.6440254E1,0E0,3.6550213E1,0E0,3.7663116E0,0E0,1.8683936E2,8.921899E1,1.6117876E1,0E0,4.1483994E1,6.946888E0,9.702484E0,0E0,6.921156E1,0E0,6.399726E0,0E0,1.2124133E1,3.0513992E0,2.5416406E2,6.0676357E1,3.754315E1,1.5920219E1,9.863281E1,6.9926E1,2.8404297E1,0E0,5.6523094E0,1.5963095E1,4.895561E0,0E0,0E0,0E0,9.334921E0,9.338516E0,6.0330124E0,0E0,4.0639353E0,3.8695912E0,0E0,0E0,0E0,0E0,0E0,0E0,0E0,0E0,0E0,0E0,0E0,0E0,0E0,0E0,0E0,0E0,0E0,0E0,0E0,0E0,0E0,0E0,0E0,0E0,0E0,0E0,0E0,0E0,0E0,0E0,0E0,0E0,0E0,0E0,0E0,0E0,0E0,0E0,0E0,0E0,0E0,0E0,0E0,0E0,0E0,0E0,0E0,0E0,0E0,0E0,0E0,0E0,0E0,0E0,0E0,0E0,0E0,0E0,0E0,0E0,0E0,0E0,0E0,0E0,0E0,0E0],"parents":[2147483647,0,0,1,1,2,2,3,3,4,4,5,5,6,6,7,7,8,8,9,9,10,10,11,11,12,12,13,13,14,14,15,15,16,16,17,17,18,18,19,19,20,20,21,21,22,22,23,23,24,24,25,25,26,26,27,27,28,28,29,29,30,30,33,33,35,35,36,36,37,37,38,38,39,39,40,40,41,41,42,42,43,43,44,44,45,45,47,47,48,48,49,49,50,50,51,51,52,52,53,53,55,55,57,57,59,59,61,61,63,63,64,64,65,65,66,66,67,67,69,69,71,71,73,73,74,74,75,75,77,77,78,78,79,79,81,81,83,83,85,85,86,86,87,87,88,88,89,89,90,90,91,91,92,92,93,93,95,95,96,96,97,97,101,101,102,102,103,103,105,105,106,106],"right_children":[2,4,6,8,10,12,14,16,18,20,22,24,26,28,30,32,34,36,38,40,42,44,46,48,50,52,54,56,58,60,62,-1,-1,64,-1,66,68,70,72,74,76,78,80,82,84,86,-1,88,90,92,94,96,98,100,-1,102,-1,104,-1,106,-1,108,-1,110,112,114,116,118,-1,120,-1,122,-1,124,126,128,-1,130,132,134,-1,136,-1,138,-1,140,142,144,146,148,150,152,154,156,-1,158,160,162,-1,-1,-1,164,166,168,-1,170,172,-1,-1,-1,-1,-1,-1,-1,-1,-1,-1,-1,-1,-1,-1,-1,-1,-1,-1,-1,-1,-1,-1,-1,-1,-1,-1,-1,-1,-1,-1,-1,-1,-1,-1,-1,-1,-1,-1,-1,-1,-1,-1,-1,-1,-1,-1,-1,-1,-1,-1,-1,-1,-1,-1,-1,-1,-1,-1,-1,-1,-1,-1,-1,-1,-1,-1],"split_conditions":[5.0680566E-1,4.0189806E-1,3.495174E-1,3.1435624E-1,5.5045414E-1,3.7018466E-1,3.9272964E-1,2.421632E-1,5.1302916E-1,2.7896544E-1,3.552984E-1,5.873294E-1,7.710944E-1,7.0026135E-1,7.977897E-1,1.9126692E-1,5.5427295E-1,2.7724466E-1,4.046826E-1,3.1396988E-1,3.5429725E-1,2.7315667E-1,5.591452E-1,6.2521005E-1,6.707606E-1,3.9943334E-1,4.398279E-1,3.0540824E-1,3.648351E-1,4.0546137E-1,4.401082E-1,-4.704182E-2,-4.541795E-2,2.751877E-1,-4.6477027E-2,2.8334054E-1,3.3761E-1,2.8334054E-1,5.163926E-1,6.342207E-1,3.815059E-1,2.7724466E-1,3.6970404E-1,3.33202E-1,1.4823364E-2,6.6229326E-1,-4.5290608E-2,6.8855697E-1,4.4938093E-1,7.5558454E-1,7.629939E-1,5.662885E-3,4.2556876E-1,4.1243118E-1,-3.819315E-2,6.1420715E-1,-4.511954E-2,7.629939E-1,-4.3828666E-2,6.928661E-1,-4.5390934E-2,2.3653378E-1,-3.452885E-2,6.101127E-1,3.4570736E-1,5.89479E-1,3.4102958E-1,1.8703662E-1,-4.610412E-2,2.0990123E-1,-4.2198196E-2,6.221787E-1,-4.672262E-2,1.1798921E-1,2.847736E-1,4.1486394E-2,-4.4793557E-2,2.379082E-2,3.3761E-1,5.2360676E-2,-4.5924887E-2,7.496421E-1,-3.7680265E-2,3.548061E-1,-4.0848862E-2,2.9762387E-1,7.359732E-1,2.9034612E-1,3.7599355E-1,8.575505E-1,5.591452E-1,2.4690115E-1,3.8304543E-1,3.001202E-1,1.885739E-1,6.707606E-1,6.781274E-1,6.417346E-1,-4.5739144E-2,1.6496812E-1,7.197076E-2,1.0930244E-1,3.4492552E-2,1.9978753E-1,1.7014927E-1,2.523982E-1,2.2486573E-1,1.3846794E-1,5.9991125E-3,-2.9185902E-2,-4.5138046E-2,-4.1037377E-2,-4.723464E-2,3.15449E-2,-3.20455E-2,-1.534076E-2,-4.383615E-2,-5.203177E-3,-4.0258612E-2,2.4899837E-2,-2.2489615E-2,-3.0301832E-2,-4.4371784E-2,1.24920994E-1,8.393848E-2,6.7480616E-2,-2.6945949E-2,3.093795E-2,-1.2168038E-2,6.982818E-2,1.241069E-2,-1.5058773E-2,-4.4088203E-2,3.7072316E-2,-3.2924917E-2,9.096086E-2,-1.5564658E-2,6.70263E-2,-3.9169956E-2,4.2118737E-3,-4.0785488E-2,-2.8010588E-2,-4.2466104E-2,1.4448658E-1,6.8856396E-2,8.164282E-2,-1.8306563E-2,1.0751051E-1,-1.3905279E-2,1.1775615E-3,-3.8556945E-2,1.7139867E-1,1.3817579E-1,1.4369543E-1,-2.202685E-2,1.8239973E-1,1.5198655E-1,6.198719E-2,1.4913295E-1,-1.5408911E-2,5.862813E-2,-3.7365604E-2,5.1585734E-3,3.815601E-2,-4.210735E-3,1.3767645E-1,6.6123314E-2,1.3214402E-1,6.745683E-2,-7.919215E-3,-4.3054555E-2,9.449944E-2,2.885184E-3],"split_indices":[5,5,6,5,2,7,6,5,3,6,3,5,5,5,5,5,2,7,2,7,6,7,3,2,5,7,7,7,7,6,6,0,0,7,0,6,7,6,2,3,7,7,6,6,6,2,0,3,3,3,5,6,7,7,0,5,0,5,0,5,0,7,0,3,7,2,6,6,0,2,0,3,0,7,2,6,0,7,7,7,0,2,0,7,0,7,2,7,2,2,3,7,2,7,0,5,5,5,0,0,0,7,7,7,0,7,7,0,0,0,0,0,0,0,0,0,0,0,0,0,0,0,0,0,0,0,0,0,0,0,0,0,0,0,0,0,0,0,0,0,0,0,0,0,0,0,0,0,0,0,0,0,0,0,0,0,0,0,0,0,0,0,0,0,0,0,0,0,0,0,0,0,0],"split_type":[0,0,0,0,0,0,0,0,0,0,0,0,0,0,0,0,0,0,0,0,0,0,0,0,0,0,0,0,0,0,0,0,0,0,0,0,0,0,0,0,0,0,0,0,0,0,0,0,0,0,0,0,0,0,0,0,0,0,0,0,0,0,0,0,0,0,0,0,0,0,0,0,0,0,0,0,0,0,0,0,0,0,0,0,0,0,0,0,0,0,0,0,0,0,0,0,0,0,0,0,0,0,0,0,0,0,0,0,0,0,0,0,0,0,0,0,0,0,0,0,0,0,0,0,0,0,0,0,0,0,0,0,0,0,0,0,0,0,0,0,0,0,0,0,0,0,0,0,0,0,0,0,0,0,0,0,0,0,0,0,0,0,0,0,0,0,0,0,0,0,0,0,0],"sum_hessian":[1.08161055E5,8.607997E4,2.208108E4,7.752565E4,8.554323E3,2.067457E4,1.4065094E3,6.673943E4,1.0786219E4,5.6898975E3,2.8644258E3,1.9943697E4,7.30874E2,4.4542123E2,9.6108813E2,5.4184297E4,1.2555132E4,5.679999E3,5.1062197E3,3.7769807E3,1.9129166E3,3.962493E2,2.4681765E3,3.768998E3,1.6174698E4,6.692494E2,6.1624588E1,3.0780365E2,1.376176E2,9.2500745E2,3.608072E1,4.418515E4,9.999148E3,7.6289966E3,4.9261357E3,3.234812E3,2.445187E3,6.9096173E2,4.4152583E3,3.0502576E3,7.2672314E2,6.5839325E2,1.2545233E3,2.6182468E2,1.3442462E2,6.4083185E2,1.8273447E3,3.2562048E3,5.127932E2,3.8692578E3,1.230544E4,1.3218953E2,5.370599E2,4.917195E1,1.2452637E1,1.8551236E2,1.2229128E2,1.2516497E2,1.2452637E1,8.8445656E1,8.3656177E2,1.5645621E1,2.0435097E1,3.8900122E3,3.7389841E3,2.3426924E3,8.921197E2,5.191792E2,1.9260078E3,4.914002E2,1.995615E2,5.8431604E2,3.8309421E3,2.5815273E3,4.6873004E2,2.6405975E2,4.6266336E2,3.949721E2,2.6342117E2,1.0377197E2,1.1507513E3,2.1871939E2,4.310528E1,1.1494741E1,1.2292988E2,2.3340712E2,4.0742474E2,3.100068E3,1.5613692E2,1.4336497E2,3.6942822E2,3.8053982E3,6.3859676E1,4.1620547E3,8.143386E3,2.203159E1,1.1015794E2,8.4614075E1,4.524458E2,4.2785984E1,6.3859677E0,1.2835796E2,5.715441E1,4.4382477E1,8.078249E1,7.82281E1,1.0217548E1,1.1494741E1,4.150879E0,2.9777769E3,9.122355E2,6.552003E2,3.083784E3,1.7312358E3,6.114564E2,2.752352E2,6.1688446E2,2.0339307E2,3.157861E2,1.2452637E2,3.6687384E2,1.6188428E2,4.2243176E2,1.2944357E3,1.2870918E3,6.6094765E1,4.0263525E2,6.545617E1,1.9860359E2,9.451232E1,3.0045978E2,6.3859676E1,1.995615E2,1.2133339E1,9.163863E1,1.7529482E2,4.342458E1,6.705266E0,4.789476E0,1.9253693E2,4.0870193E1,1.3474391E2,2.7268082E2,2.8162117E3,2.8385626E2,5.108774E1,1.0504917E2,1.2708076E2,1.6284218E1,7.184214E1,2.975861E2,3.1572224E3,6.481757E2,2.1073694E1,4.2785984E1,3.939184E3,2.2287027E2,1.4687726E1,7.343863E0,9.068074E1,1.9477201E1,6.4498276E1,2.0115799E1,4.5659668E1,8.269828E1,1.5645621E1,4.150879E1,2.7140364E1,1.7242113E1,3.2887733E1,4.534037E1,5.7473707E0,4.4701777E0],"tree_param":{"num_deleted":"0","num_feature":"8","num_nodes":"173","size_leaf_vector":"1"}},{"base_weights":[-1.269964E-1,4.4643825E-1,-5.6275743E-1,9.3759316E-1,-5.4498583E-1,-2.3306072E-1,-6.065454E-1,1.6206416E0,-5.041436E-1,-7.7412434E-2,-6.062765E-1,2.5330308E-1,-5.6679815E-1,-5.147654E-1,-4.6668056E-2,1.9815547E0,-3.2176635E-1,-5.44043E-1,2.1092932E0,2.6041925E-1,-4.9908584E-1,-4.524032E-1,-4.657528E-2,6.9202566E-1,-4.9653593E-1,-3.2417154E-1,-4.639382E-2,-3.3889776E-1,-5.988322E-1,2.3762033E0,1.3554478E0,4.0937442E-1,-5.4796267E-1,-2.030955E-1,-5.904566E-1,2.2875242E0,6.248256E-2,4.6236297E-1,-3.997172E-2,-2.8483844E-1,-4.5386598E-2,-2.2498289E-1,-5.3835285E-1,1.1325502E0,-5.411704E-1,-1.4192687E-1,-4.5408547E-2,1.0071278E-1,-5.327488E-1,4.9614515E-2,-5.820551E-1,-5.0710285E-1,-4.6538483E-2,2.424262E0,9.546658E-1,1.7297848E0,9.2414546E-1,1.8143383E0,-4.8444472E-2,-2.9308668E-1,-4.5843974E-2,-3.1871933E-1,9.848053E-1,-5.043792E-1,-4.5919582E-2,1.5194539E0,1.8668854E-1,-3.1588327E-2,5.6138713E-2,1.5694321E0,3.316468E-2,2.9280934E-1,-4.3892187E-1,1.971635E-1,-4.2039642E-1,3.3514544E-2,-4.1559823E-2,2.0732923E0,4.263277E-1,-4.404562E-2,1.0802473E-1,5.329357E-1,-3.9240474E-1,4.1100973E-1,-1.03805356E-1,-3.451894E-1,-4.6135146E-2,5.357164E-1,-2.376752E-1,-4.0209568E-1,-4.643447E-2,-3.530904E-1,-4.479385E-2,1.9154772E-1,1.555529E-1,3.735751E-2,1.5404381E-1,1.5156007E-1,9.989961E-2,1.1007632E-1,4.354339E-2,1.604404E-1,9.184541E-2,1.3776666E-1,-6.9529414E-3,5.7113327E-2,-3.366118E-2,-2.7042937E-2,1.7445754E-2,4.044776E-2,1.0380736E-1,-3.9067302E-2,4.890521E-2,1.6531669E-1,6.940995E-2,1.4554979E-1,8.844009E-2,1.6446406E-1,-1.7676975E-3,5.0878868E-2,-4.392149E-2,3.4171227E-2,-3.600446E-2,6.916547E-2,-1.4318773E-2,2.2151394E-2,-3.5442367E-2,1.6379651E-1,4.370778E-2,7.421504E-2,1.3907048E-2,7.405695E-2,-4.4294707E-2,-3.237249E-2,4.161127E-2,7.101815E-2,-4.040467E-2,-1.5740858E-2,9.224214E-2,6.174834E-3,-4.347829E-2,9.716841E-2,-3.7999824E-2,7.286605E-2,-2.0637818E-2,1.657955E-2,-4.039042E-2,2.45824E-2,-3.4580223E-2],"categories":[],"categories_nodes":[],"categories_segments":[],"categories_sizes":[],"default_left":[0,0,0,0,0,0,0,0,0,0,0,0,0,0,0,0,0,0,0,0,0,0,0,0,0,0,0,0,0,0,0,0,0,0,0,0,0,0,0,0,0,0,0,0,0,0,0,0,0,0,0,0,0,0,0,0,0,0,0,0,0,0,0,0,0,0,0,0,0,0,0,0,0,0,0,0,0,0,0,0,0,0,0,0,0,0,0,0,0,0,0,0,0,0,0,0,0,0,0,0,0,0,0,0,0,0,0,0,0,0,0,0,0,0,0,0,0,0,0,0,0,0,0,0,0,0,0,0,0,0,0,0,0,0,0,0,0,0,0,0,0,0,0,0,0,0,0,0,0],"id":1,"left_children":[1,3,5,7,9,11,13,15,17,19,21,23,25,27,-1,29,31,33,35,37,39,41,-1,43,45,47,-1,49,51,53,55,57,59,61,63,65,67,69,-1,71,-1,73,75,77,79,81,-1,83,85,87,89,91,-1,93,95,97,99,101,103,105,-1,107,109,111,-1,113,-1,-1,-1,115,117,119,121,123,125,-1,-1,127,129,-1,-1,131,133,135,137,139,-1,141,143,145,-1,147,-1,-1,-1,-1,-1,-1,-1,-1,-1,-1,-1,-1,-1,-1,-1,-1,-1,-1,-1,-1,-1,-1,-1,-1,-1,-1,-1,-1,-1,-1,-1,-1,-1,-1,-1,-1,-1,-1,-1,-1,-1,-1,-1,-1,-1,-1,-1,-1,-1,-1,-1,-1,-1,-1,-1,-1,-1],"loss_changes":[2.6004373E4,2.188146E4,8.535293E2,2.95927E4,4.26583E2,1.12571E3,4.292578E1,1.4294652E4,1.00850806E3,2.4606635E2,1.6067871E1,9.288968E2,4.4860962E1,6.898743E1,0E0,4.2455156E3,5.2874615E2,1.5046948E2,5.292755E1,1.5281062E2,1.6220581E1,1.2774841E1,0E0,9.682206E2,3.7776978E1,5.743197E1,0E0,1.4323085E2,4.052246E0,7.181328E2,1.0721074E3,4.861424E2,3.512451E1,1.5713284E2,1.0682861E1,1.4239685E1,4.42819E0,3.629448E2,0E0,2.199621E1,0E0,1.5152037E1,4.8539886E0,8.7121387E2,3.7572876E1,3.9921093E1,0E0,1.3625049E1,5.965683E0,8.17455E1,4.860626E0,5.6127396E0,0E0,3.8358984E2,1.7141745E2,3.9240234E2,5.700503E2,3.1246643E1,4.6252125E1,7.0835724E1,0E0,2.1791145E1,1.6882866E1,1.6244446E1,0E0,8.957966E0,0E0,0E0,0E0,2.7889404E1,6.659741E1,1.7656258E1,6.437351E0,1.6318094E1,4.3385487E0,0E0,0E0,7.222998E1,1.0062601E2,0E0,0E0,3.231859E1,5.833582E0,4.2796352E1,1.8048164E1,1.245024E1,0E0,1.688157E2,1.5503487E1,1.1294014E1,0E0,1.14165325E1,0E0,0E0,0E0,0E0,0E0,0E0,0E0,0E0,0E0,0E0,0E0,0E0,0E0,0E0,0E0,0E0,0E0,0E0,0E0,0E0,0E0,0E0,0E0,0E0,0E0,0E0,0E0,0E0,0E0,0E0,0E0,0E0,0E0,0E0,0E0,0E0,0E0,0E0,0E0,0E0,0E0,0E0,0E0,0E0,0E0,0E0,0E0,0E0,0E0,0E0,0E0,0E0,0E0,0E0,0E0,0E0,0E0],"parents":[2147483647,0,0,1,1,2,2,3,3,4,4,5,5,6,6,7,7,8,8,9,9,10,10,11,11,12,12,13,13,15,15,16,16,17,17,18,18,19,19,20,20,21,21,23,23,24,24,25,25,27,27,28,28,29,29,30,30,31,31,32,32,33,33,34,34,35,35,36,36,37,37,39,39,41,41,42,42,43,43,44,44,45,45,47,47,48,48,49,49,50,50,51,51,53,53,54,54,55,55,56,56,57,57,58,58,59,59,61,61,62,62,63,63,65,65,69,69,70,70,71,71,72,72,73,73,74,74,77,77,78,78,81,81,82,82,83,83,84,84,85,85,87,87,88,88,89,89,91,91],"right_children":[2,4,6,8,10,12,14,16,18,20,22,24,26,28,-1,30,32,34,36,38,40,42,-1,44,46,48,-1,50,52,54,56,58,60,62,64,66,68,70,-1,72,-1,74,76,78,80,82,-1,84,86,88,90,92,-1,94,96,98,100,102,104,106,-1,108,110,112,-1,114,-1,-1,-1,116,118,120,122,124,126,-1,-1,128,130,-1,-1,132,134,136,138,140,-1,142,144,146,-1,148,-1,-1,-1,-1,-1,-1,-1,-1,-1,-1,-1,-1,-1,-1,-1,-1,-1,-1,-1,-1,-1,-1,-1,-1,-1,-1,-1,-1,-1,-1,-1,-1,-1,-1,-1,-1,-1,-1,-1,-1,-1,-1,-1,-1,-1,-1,-1,-1,-1,-1,-1,-1,-1,-1,-1,-1,-1],"split_conditions":[2.898514E-1,3.2726225E-1,3.4874004E-1,6.7192763E-1,3.770315E-1,2.7585247E-1,3.9409456E-1,3.3179477E-1,1.2E1,2.607265E-1,4.0189806E-1,3.043722E-1,3.550385E-1,2.597233E-1,-4.6668056E-2,1.3E1,3.7599355E-1,7.459227E-1,8.7094635E-1,6.5659356E-1,3.4791502E-1,1.7073013E-1,-4.657528E-2,7.032521E-1,3.7234622E-1,1.9961871E-1,-4.639382E-2,2.8740573E-1,3.3538884E-1,6.3015074E-1,1.4695488E-1,1.1E1,4.1281834E-1,9E0,8.011773E-1,1.3E1,1.3E1,1.1E1,-3.997172E-2,1E1,-4.5386598E-2,1.2E1,1E0,1.2E1,1.1E1,1.2E1,-4.5408547E-2,1.2E1,3.160928E-1,1.2E1,3.5504237E-1,2.5801247E-1,-4.6538483E-2,1.1E1,8E0,1.6534771E-1,1.0782546E-1,9E0,2.8585676E-2,1.1E1,-4.5843974E-2,8E0,1E1,1.1E1,-4.5919582E-2,7.316605E-1,1.8668854E-1,-3.1588327E-2,5.6138713E-2,8E0,3.3504874E-2,6.3015074E-1,7.103219E-2,3.296706E-1,9.099339E-2,3.3514544E-2,-4.1559823E-2,6.3015074E-1,6.394425E-2,-4.404562E-2,1.0802473E-1,7.032521E-1,5.2250224E-1,6.5659356E-1,5.3212595E-1,1.3E1,-4.6135146E-2,6.5659356E-1,6.365057E-2,1.1E1,-4.643447E-2,9E0,-4.479385E-2,1.9154772E-1,1.555529E-1,3.735751E-2,1.5404381E-1,1.5156007E-1,9.989961E-2,1.1007632E-1,4.354339E-2,1.604404E-1,9.184541E-2,1.3776666E-1,-6.9529414E-3,5.7113327E-2,-3.366118E-2,-2.7042937E-2,1.7445754E-2,4.044776E-2,1.0380736E-1,-3.9067302E-2,4.890521E-2,1.6531669E-1,6.940995E-2,1.4554979E-1,8.844009E-2,1.6446406E-1,-1.7676975E-3,5.0878868E-2,-4.392149E-2,3.4171227E-2,-3.600446E-2,6.916547E-2,-1.4318773E-2,2.2151394E-2,-3.5442367E-2,1.6379651E-1,4.370778E-2,7.421504E-2,1.3907048E-2,7.405695E-2,-4.4294707E-2,-3.237249E-2,4.161127E-2,7.101815E-2,-4.040467E-2,-1.5740858E-2,9.224214E-2,6.174834E-3,-4.347829E-2,9.716841E-2,-3.7999824E-2,7.286605E-2,-2.0637818E-2,1.657955E-2,-4.039042E-2,2.45824E-2,-3.4580223E-2],"split_indices":[3,5,3,1,5,5,3,2,0,2,5,2,5,5,0,0,2,1,1,1,2,2,0,1,2,2,0,2,5,1,5,0,2,0,1,0,0,0,0,0,0,0,0,0,0,0,0,0,2,0,2,2,0,0,0,2,2,0,1,0,0,0,0,0,0,1,0,0,0,0,1,1,1,1,1,0,0,1,5,0,0,1,1,1,1,0,0,1,1,0,0,0,0,0,0,0,0,0,0,0,0,0,0,0,0,0,0,0,0,0,0,0,0,0,0,0,0,0,0,0,0,0,0,0,0,0,0,0,0,0,0,0,0,0,0,0,0,0,0,0,0,0,0,0,0,0,0,0,0],"split_type":[0,0,0,0,0,0,0,0,0,0,0,0,0,0,0,0,0,0,0,0,0,0,0,0,0,0,0,0,0,0,0,0,0,0,0,0,0,0,0,0,0,0,0,0,0,0,0,0,0,0,0,0,0,0,0,0,0,0,0,0,0,0,0,0,0,0,0,0,0,0,0,0,0,0,0,0,0,0,0,0,0,0,0,0,0,0,0,0,0,0,0,0,0,0,0,0,0,0,0,0,0,0,0,0,0,0,0,0,0,0,0,0,0,0,0,0,0,0,0,0,0,0,0,0,0,0,0,0,0,0,0,0,0,0,0,0,0,0,0,0,0,0,0,0,0,0,0,0,0],"sum_hessian":[1.04065234E5,4.493436E4,5.913087E4,3.0048355E4,1.4886003E4,6.9333374E3,5.2197535E4,2.0388715E4,9.659641E3,1.725419E3,1.3160584E4,2.8215964E3,4.111741E3,4.6788887E3,4.7518645E4,1.719394E4,3.1947761E3,9.515164E3,1.4447655E2,9.581562E2,7.672627E2,6.587516E2,1.2501833E4,1.7801355E3,1.0414608E3,6.4645575E2,3.4652854E3,1.514852E3,3.1640364E3,1.0544637E4,6.6493027E3,7.546594E2,2.4401167E3,1.14075E3,8.374414E3,1.3279547E2,1.1681083E1,7.6295917E2,1.9519704E2,2.4468794E2,5.2257477E2,1.8167159E2,4.7708002E2,1.3116626E3,4.684729E2,2.3392906E2,8.075317E2,2.1302606E2,4.3342966E2,5.8343933E2,9.3141266E2,4.503365E2,2.7137E3,1.0199122E4,3.4551413E2,3.5581194E3,3.0911833E3,1.8474554E2,5.699139E2,4.4541812E2,1.9946986E3,1.0402312E3,1.0051879E2,1.2649384E3,7.109476E3,2.6436134E1,1.0635934E2,7.070129E0,4.610954E0,2.1241127E2,5.5054785E2,5.1335285E1,1.9335266E2,5.7483223E1,1.24188354E2,4.303557E0,4.7277646E2,5.616142E2,7.5004846E2,4.5986578E2,8.607114E0,6.301637E1,1.7091269E2,8.422675E1,1.2879932E2,1.2634013E2,3.070895E2,2.1640742E2,3.6703192E2,1.3679163E2,7.9462103E2,1.604612E2,2.898753E2,7.996316E3,2.2028064E3,2.4284357E2,1.0267057E2,2.1493193E3,1.4088E3,1.2308173E3,1.8603662E3,1.2142178E2,6.3323765E1,1.198848E1,5.579254E2,5.5638844E1,3.897793E2,9.732186E2,6.701253E1,4.7339127E1,5.317967E1,1.2535646E3,1.1373686E1,1.1373686E1,1.5062449E1,1.1158508E2,1.0082619E2,1.3218067E1,5.3732983E2,3.596544E1,1.5369846E1,7.070129E0,1.8628253E2,1.9673403E1,3.7809822E1,7.3775263E0,1.1681083E2,5.302597E2,3.1354486E1,2.2808852E2,5.2195996E2,4.5187347E1,1.7829021E1,1.6537955E2,5.5331445E0,5.4101856E1,3.0124899E1,1.2019219E2,8.607114E0,4.4265156E1,8.2074974E1,1.2572534E2,9.068209E1,9.5293045E0,3.5750262E2,2.3669563E1,1.1312206E2,2.090299E1,1.395582E2],"tree_param":{"num_deleted":"0","num_feature":"8","num_nodes":"149","size_leaf_vector":"1"}},{"base_weights":[7.8444304E-5,-4.7677454E-1,1.3269646E0,-5.752073E-1,1.2437956E-1,1.534284E0,-8.930071E-2,-6.151103E-1,-4.0058115E-1,3.2443973E-1,-4.545938E-1,1.821953E0,-5.076006E-2,-2.7846253E-1,2.0884483E0,-4.7097333E-2,-5.728455E-1,-4.8536885E-1,-2.1851607E-1,5.2315396E-1,-4.0269172E-1,-5.094441E-1,1.7362536E-1,1.322075E0,2.0539496E0,-2.3373613E-1,2.0560265E0,-3.863165E-1,2.2335074E0,1.1865907E0,2.3857706E0,-4.511982E-2,-5.080094E-1,-4.013192E-1,-5.837906E-1,-3.4475914E-5,-5.503333E-1,8.099515E-1,-3.732358E-1,-4.6617422E-1,2.1749368E0,-5.3060454E-1,1.3579823E-1,1.492069E0,-1.4813155E-2,2.0863934E0,-1.6800571E-2,1.699261E-1,-4.5082584E-1,1.3026335E0,1.8461175E-1,-1.14120565E-1,-5.319956E-1,2.342256E0,9.4822156E-1,1.8465351E0,2.02989E-1,1.8278639E-1,7.883762E-2,-4.2537418E-1,-5.932139E-1,-1.1558491E-1,-5.825084E-1,-5.268746E-1,-4.6474393E-2,-2.7521247E-1,2.5046566E-1,-5.760621E-1,1.547975E-1,2.2450778E-1,1.0428814E0,-4.5720223E-1,1.9740523E0,-4.858095E-1,4.9382097E-1,5.9820484E-2,1.7742349E-1,-4.0996778E-1,-4.4940915E-2,6.416341E-1,-4.6586126E-1,1.5718125E0,-9.017468E-2,-2.2540393E-1,2.1087935E0,2.1614661E0,1.4114611E0,4.7311053E-1,-3.936656E-2,-8.321328E-2,1.04111E0,-4.8895726E-1,3.1912336E-1,1.7279874E0,2.4913808E-2,-2.6880014E-1,4.3141648E-1,-4.1054478E-1,-4.3212265E-2,1.1536432E-1,1.8467145E-1,-6.5604835E-3,1.3966876E-1,1.0749482E0,1.6613787E-1,-1.6363119E-1,1.1717196E-1,-3.842962E-2,-1.90822E-2,-4.5904085E-2,1.2394322E-1,6.186964E-3,-4.3888375E-2,-3.8664978E-2,-4.6243917E-2,-4.325017E-2,-3.4413602E-2,-8.923216E-3,-4.1666802E-2,-3.805664E-3,7.326308E-2,-4.4615883E-2,1.6460788E-1,3.3910405E-2,-1.6373387E-2,8.786609E-2,-1.2936651E-2,-3.7265275E-2,1.6898422E-1,1.6535395E-1,5.089609E-2,-2.2704167E-2,-4.2802725E-2,8.20552E-2,-3.3504866E-2,-3.4593813E-2,-8.147085E-3,8.600477E-2,5.2749035E-3,1.9078169E-2,-4.3944404E-2,7.0688576E-2,1.2971969E-1,2.8283665E-2,-3.2046787E-2,4.4497834E-3,-3.80659E-2,1.7009263E-1,5.732423E-2,1.6558428E-1,4.5112554E-2,5.9514716E-2,1.6558376E-1,5.813127E-2,-1.42018525E-2,-1.7387867E-2,2.7413888E-2,9.688988E-2,-5.2647037E-3,-2.5529748E-2,-4.290224E-2,5.7566524E-2,-2.4377456E-2,1.412657E-1,3.9364986E-2,-1.7670479E-2,7.224452E-2,-3.0070925E-2,9.419339E-3,-7.4836193E-3,5.6144793E-2,-3.3501733E-2,6.0311478E-2,1.0152193E-1,2.0805854E-2,2.513986E-2,-4.3965016E-2],"categories":[],"categories_nodes":[],"categories_segments":[],"categories_sizes":[],"default_left":[0,0,0,0,0,0,0,0,0,0,0,0,0,0,0,0,0,0,0,0,0,0,0,0,0,0,0,0,0,0,0,0,0,0,0,0,0,0,0,0,0,0,0,0,0,0,0,0,0,0,0,0,0,0,0,0,0,0,0,0,0,0,0,0,0,0,0,0,0,0,0,0,0,0,0,0,0,0,0,0,0,0,0,0,0,0,0,0,0,0,0,0,0,0,0,0,0,0,0,0,0,0,0,0,0,0,0,0,0,0,0,0,0,0,0,0,0,0,0,0,0,0,0,0,0,0,0,0,0,0,0,0,0,0,0,0,0,0,0,0,0,0,0,0,0,0,0,0,0,0,0,0,0,0,0,0,0,0,0,0,0,0,0,0,0,0,0,0,0,0,0,0,0,0,0,0,0],"id":2,"left_children":[1,3,5,7,9,11,13,15,17,19,21,23,25,27,29,-1,31,33,35,37,39,41,-1,43,45,47,49,51,53,55,57,-1,59,61,63,65,67,69,71,73,75,77,79,81,83,85,87,89,91,93,-1,95,97,99,101,103,105,-1,-1,107,109,111,113,115,-1,117,119,121,-1,123,125,127,129,131,133,-1,-1,135,-1,137,139,141,143,145,147,149,151,153,-1,155,157,159,161,163,165,167,169,171,-1,-1,-1,-1,-1,173,-1,175,-1,-1,-1,-1,-1,-1,-1,-1,-1,-1,-1,-1,-1,-1,-1,-1,-1,-1,-1,-1,-1,-1,-1,-1,-1,-1,-1,-1,-1,-1,-1,-1,-1,-1,-1,-1,-1,-1,-1,-1,-1,-1,-1,-1,-1,-1,-1,-1,-1,-1,-1,-1,-1,-1,-1,-1,-1,-1,-1,-1,-1,-1,-1,-1,-1,-1,-1,-1,-1,-1,-1],"loss_changes":[6.839384E4,4.705336E3,8.390762E3,4.7587695E2,1.2961558E3,1.1366266E4,1.5041682E3,1.40390625E1,1.9613098E2,1.2018201E3,4.338236E2,2.4440781E3,1.4769592E3,9.1093896E2,7.5418335E1,0E0,9.894531E0,7.150598E1,2.929489E2,1.6794811E3,2.9317584E2,3.8552124E1,0E0,1.5205928E3,9.680508E2,3.0897125E2,8.4268555E1,1.2769E2,1.7128906E1,4.78826E1,4.9198E0,0E0,1.250296E1,2.4227167E2,6.3182373E0,1.6809564E2,1.0817462E2,6.7461426E2,3.1308344E2,3.310193E1,8.028427E0,2.0229553E1,2.7776823E1,7.4911035E2,3.38474E2,7.157539E2,5.5203583E1,2.721058E2,6.746152E1,5.682498E1,0E0,9.499811E1,9.447876E0,6.0480957E0,1.1704944E1,9.451263E0,1.5498969E1,0E0,0E0,1.2944275E1,2.5325287E1,1.6611621E2,5.3930664E0,4.0729675E0,0E0,5.0158432E1,2.7481613E2,5.559729E1,0E0,1.3844476E2,4.989795E2,1.4224118E2,1.33402405E1,2.4915497E1,1.9995281E1,0E0,0E0,1.3008453E1,0E0,1.3867224E1,3.5598326E0,5.0155273E2,4.4178154E1,5.415328E1,1.07543335E1,4.5179297E2,6.869946E2,2.2169336E1,0E0,6.2272408E1,7.3174805E1,2.5394775E1,3.0923435E1,1.1875E1,6.7220707E0,4.410082E1,4.084481E1,1.9395676E1,0E0,0E0,0E0,0E0,0E0,2.9459152E0,0E0,5.394738E0,0E0,0E0,0E0,0E0,0E0,0E0,0E0,0E0,0E0,0E0,0E0,0E0,0E0,0E0,0E0,0E0,0E0,0E0,0E0,0E0,0E0,0E0,0E0,0E0,0E0,0E0,0E0,0E0,0E0,0E0,0E0,0E0,0E0,0E0,0E0,0E0,0E0,0E0,0E0,0E0,0E0,0E0,0E0,0E0,0E0,0E0,0E0,0E0,0E0,0E0,0E0,0E0,0E0,0E0,0E0,0E0,0E0,0E0,0E0,0E0,0E0,0E0,0E0,0E0,0E0,0E0,0E0,0E0,0E0,0E0,0E0],"parents":[2147483647,0,0,1,1,2,2,3,3,4,4,5,5,6,6,7,7,8,8,9,9,10,10,11,11,12,12,13,13,14,14,16,16,17,17,18,18,19,19,20,20,21,21,23,23,24,24,25,25,26,26,27,27,28,28,29,29,30,30,32,32,33,33,34,34,35,35,36,36,37,37,38,38,39,39,40,40,41,41,42,42,43,43,44,44,45,45,46,46,47,47,48,48,49,49,51,51,52,52,53,53,54,54,55,55,56,56,59,59,60,60,61,61,62,62,63,63,65,65,66,66,67,67,69,69,70,70,71,71,72,72,73,73,74,74,77,77,79,79,80,80,81,81,82,82,83,83,84,84,85,85,86,86,87,87,89,89,90,90,91,91,92,92,93,93,94,94,95,95,96,96,97,97,103,103,105,105],"right_children":[2,4,6,8,10,12,14,16,18,20,22,24,26,28,30,-1,32,34,36,38,40,42,-1,44,46,48,50,52,54,56,58,-1,60,62,64,66,68,70,72,74,76,78,80,82,84,86,88,90,92,94,-1,96,98,100,102,104,106,-1,-1,108,110,112,114,116,-1,118,120,122,-1,124,126,128,130,132,134,-1,-1,136,-1,138,140,142,144,146,148,150,152,154,-1,156,158,160,162,164,166,168,170,172,-1,-1,-1,-1,-1,174,-1,176,-1,-1,-1,-1,-1,-1,-1,-1,-1,-1,-1,-1,-1,-1,-1,-1,-1,-1,-1,-1,-1,-1,-1,-1,-1,-1,-1,-1,-1,-1,-1,-1,-1,-1,-1,-1,-1,-1,-1,-1,-1,-1,-1,-1,-1,-1,-1,-1,-1,-1,-1,-1,-1,-1,-1,-1,-1,-1,-1,-1,-1,-1,-1,-1,-1,-1,-1,-1,-1,-1,-1],"split_conditions":[1.3E1,1.1E1,6.3739645E-1,9E0,6.005322E-1,6.2768024E-1,3.4486833E-1,8E0,2.561615E-1,6.133423E-1,4.0598586E-1,1.5E1,3.4570736E-1,3.671365E-1,3.7915587E-1,-4.7097333E-2,2.654065E-1,5.053089E-1,6.1350036E-1,6.054469E-1,3.815059E-1,3.266377E-1,1.7362536E-1,6.3326186E-1,5.7308906E-1,7.227412E-1,3.9943334E-1,7.362878E-1,8.338791E-1,7.362878E-1,9.0796983E-1,-4.511982E-2,5.583015E-1,5.010235E-1,6.415166E-1,3.3003077E-1,3.87474E-1,1.0930244E-1,3.671365E-1,3.4137583E-1,3.9316106E-1,7.151328E-1,7.629939E-1,5.423093E-1,3.3761E-1,5.3553003E-1,6.1903566E-1,1.7E1,1.9E1,7.977897E-1,1.8461175E-1,2.307642E-1,7.865024E-1,3.911155E-1,4.0189806E-1,1.7605934E-1,3.0011058E-1,1.8278639E-1,7.883762E-2,3.596229E-1,3.8378432E-1,5.182076E-1,6.417346E-1,1.2301203E-1,-4.6474393E-2,5.466008E-1,2.8236887E-1,4.1281834E-1,1.547975E-1,4.5060956E-1,5.2250224E-1,4.1281834E-1,7.653583E-1,7.0058477E-1,8.20738E-1,5.9820484E-2,1.7742349E-1,2.4690115E-1,-4.4940915E-2,3.765922E-1,1.7767029E-1,7.681913E-2,5.8096457E-1,7.590891E-1,8.153287E-1,7.590891E-1,2.4599138E-1,4.6001667E-1,-3.936656E-2,2.1630618E-1,4.8490915E-1,7.977897E-1,8.458063E-1,5.0624734E-1,1.7E1,2.0990123E-1,7.950266E-2,3.1958413E-1,-4.3212265E-2,1.1536432E-1,1.8467145E-1,-6.5604835E-3,1.3966876E-1,3.7450916E-1,1.6613787E-1,8.210579E-1,1.1717196E-1,-3.842962E-2,-1.90822E-2,-4.5904085E-2,1.2394322E-1,6.186964E-3,-4.3888375E-2,-3.8664978E-2,-4.6243917E-2,-4.325017E-2,-3.4413602E-2,-8.923216E-3,-4.1666802E-2,-3.805664E-3,7.326308E-2,-4.4615883E-2,1.6460788E-1,3.3910405E-2,-1.6373387E-2,8.786609E-2,-1.2936651E-2,-3.7265275E-2,1.6898422E-1,1.6535395E-1,5.089609E-2,-2.2704167E-2,-4.2802725E-2,8.20552E-2,-3.3504866E-2,-3.4593813E-2,-8.147085E-3,8.600477E-2,5.2749035E-3,1.9078169E-2,-4.3944404E-2,7.0688576E-2,1.2971969E-1,2.8283665E-2,-3.2046787E-2,4.4497834E-3,-3.80659E-2,1.7009263E-1,5.732423E-2,1.6558428E-1,4.5112554E-2,5.9514716E-2,1.6558376E-1,5.813127E-2,-1.42018525E-2,-1.7387867E-2,2.7413888E-2,9.688988E-2,-5.2647037E-3,-2.5529748E-2,-4.290224E-2,5.7566524E-2,-2.4377456E-2,1.412657E-1,3.9364986E-2,-1.7670479E-2,7.224452E-2,-3.0070925E-2,9.419339E-3,-7.4836193E-3,5.6144793E-2,-3.3501733E-2,6.0311478E-2,1.0152193E-1,2.0805854E-2,2.513986E-2,-4.3965016E-2],"split_indices":[0,0,7,0,5,5,2,0,7,2,7,0,7,5,2,0,7,2,7,7,7,7,0,2,1,5,7,7,7,7,7,0,7,5,2,7,5,7,5,7,7,5,5,1,7,7,1,0,0,5,0,5,7,5,5,5,5,0,0,7,5,1,5,7,0,2,5,2,0,5,1,2,7,2,2,0,0,7,0,1,1,7,1,2,2,2,5,5,0,7,1,5,5,1,0,2,2,5,0,0,0,0,0,1,0,7,0,0,0,0,0,0,0,0,0,0,0,0,0,0,0,0,0,0,0,0,0,0,0,0,0,0,0,0,0,0,0,0,0,0,0,0,0,0,0,0,0,0,0,0,0,0,0,0,0,0,0,0,0,0,0,0,0,0,0,0,0,0,0,0,0,0,0,0,0,0,0],"split_type":[0,0,0,0,0,0,0,0,0,0,0,0,0,0,0,0,0,0,0,0,0,0,0,0,0,0,0,0,0,0,0,0,0,0,0,0,0,0,0,0,0,0,0,0,0,0,0,0,0,0,0,0,0,0,0,0,0,0,0,0,0,0,0,0,0,0,0,0,0,0,0,0,0,0,0,0,0,0,0,0,0,0,0,0,0,0,0,0,0,0,0,0,0,0,0,0,0,0,0,0,0,0,0,0,0,0,0,0,0,0,0,0,0,0,0,0,0,0,0,0,0,0,0,0,0,0,0,0,0,0,0,0,0,0,0,0,0,0,0,0,0,0,0,0,0,0,0,0,0,0,0,0,0,0,0,0,0,0,0,0,0,0,0,0,0,0,0,0,0,0,0,0,0,0,0,0,0],"sum_hessian":[1.0809131E5,7.951577E4,2.8575537E4,6.832784E4,1.118793E4,2.4926586E4,3.648952E3,5.561662E4,1.2711223E4,8.315134E3,2.8727964E3,2.1097467E4,3.8291196E3,3.3581328E3,2.908192E2,4.856649E4,7.050134E3,8.671323E3,4.0398997E3,6.530677E3,1.7844564E3,2.817311E3,5.5485245E1,6.6897983E3,1.4407668E4,3.5239507E3,3.0516882E2,3.220695E3,1.3743759E2,7.334256E1,2.1747664E2,5.239529E3,1.8106046E3,4.679893E3,3.99143E3,2.4365674E3,1.6033322E3,4.947753E3,1.5829238E3,1.7423641E3,4.2092255E1,2.7280244E3,8.92866E1,5.935008E3,7.5479065E2,1.4185408E4,2.2225986E2,1.2324739E3,2.2914768E3,1.0363623E2,2.0153261E2,1.1234167E3,2.0972783E3,1.2595788E2,1.1479706E1,4.3367775E1,2.9974787E1,2.1269344E2,4.7832108E0,9.22203E2,8.884017E2,1.8166633E3,2.86323E3,1.360664E3,2.6307659E3,1.1610447E3,1.2755228E3,1.5883448E3,1.4987393E1,1.408815E3,3.538938E3,1.529033E3,5.389084E1,1.707925E3,3.4439117E1,5.1020913E0,3.699016E1,9.304939E2,1.7975305E3,4.8469868E1,4.081673E1,5.650247E3,2.8476047E2,6.875068E2,6.728383E1,1.276352E4,1.421889E3,1.1256489E2,1.0969496E2,9.556855E2,2.7678845E2,2.183695E3,1.0778168E2,7.7488014E1,2.6148218E1,8.756464E2,2.4777031E2,5.02556E2,1.5947224E3,1.4668512E1,1.1128937E2,5.739853E0,5.739853E0,1.4668512E1,2.8699265E1,2.4234934E1,5.739853E0,6.2628174E2,2.959213E2,8.842562E2,4.145449E0,1.274885E3,5.417783E2,7.920997E2,2.0711301E3,8.4726605E2,5.1339795E2,7.385277E2,4.2251694E2,8.989247E2,3.765981E2,1.5819672E3,6.377614E0,9.35596E2,4.7321896E2,3.2299426E3,3.089954E2,1.510538E3,1.849508E1,4.5918823E1,7.972018E0,5.089336E2,1.1989915E3,2.1046127E1,1.339299E1,8.064493E2,1.2404459E2,2.5510456E1,2.2959412E1,5.420972E0,3.539576E1,1.0118085E3,4.638439E3,1.18942505E2,1.6581796E2,3.3960794E2,3.4789886E2,6.0587334E1,6.696495E0,1.2581119E4,1.8239977E2,7.863598E2,6.3552924E2,7.780689E1,3.4757996E1,7.1971375E2,2.3597173E2,2.2799971E2,4.878875E1,7.3502E2,1.448675E3,6.3776142E1,4.400554E1,6.919711E1,8.290898E0,2.1046127E1,5.1020913E0,6.607208E2,2.149256E2,9.151876E1,1.5625154E2,4.9043854E2,1.2117467E1,1.0523064E1,4.145449E0,1.1160825E1,1.3074109E1],"tree_param":{"num_deleted":"0","num_feature":"8","num_nodes":"177","size_leaf_vector":"1"}},{"base_weights":[-2.6992148E-1,-5.9653664E-1,2.5134215E0,-6.0673654E-1,2.4025065E-1,2.6638293E0,-5.740766E-1,-6.089288E-1,-3.447501E-1,1.1255915E0,-5.892602E-1,2.7504008E0,-5.8095205E-1,-5.923015E-1,8.7785386E-2,-4.622294E-2,-5.15287E-1,1.3674723E-1,-5.805439E-1,2.3307683E0,-4.5333408E-2,1.2544185E-1,-4.616451E-2,2.7553885E0,-2.2716935E-1,2.0517487E-2,-4.5770932E-2,1.0416647E-2,-4.5677695E-2,-2.4555485E-1,-4.4201847E-2,1.5888622E0,-5.403618E-1,-2.84512E-1,-4.5980915E-2,2.5457067E0,-4.0773723E-2,6.5316364E-2,-3.3502277E-2,2.7599795E0,3.0078715E-1,5.124728E-2,-4.272554E-2,1.070547E-1,-4.3649726E-2,2.400753E0,-3.7488896E-2,1.5407045E-1,-4.594611E-2,3.3771012E-2,-3.217217E-2,2.608453E0,-1.880458E-2,2.0946336E-1,2.185768E0,1.02682E0,-4.1419607E-2,8.6889714E-2,-4.5188375E-2,1.9559404E-1,3.6896646E-2,5.8625896E-2,-4.0321123E-2,1.9963977E-1,1.12824865E-1,1.8537834E-1,4.298868E-3,1.3752669E-1,1.5033036E-3],"categories":[],"categories_nodes":[],"categories_segments":[],"categories_sizes":[],"default_left":[0,0,0,0,0,0,0,0,0,0,0,0,0,0,0,0,0,0,0,0,0,0,0,0,0,0,0,0,0,0,0,0,0,0,0,0,0,0,0,0,0,0,0,0,0,0,0,0,0,0,0,0,0,0,0,0,0,0,0,0,0,0,0,0,0,0,0,0,0],"id":3,"left_children":[1,3,5,7,9,11,13,15,17,19,21,23,25,27,-1,-1,29,31,33,35,-1,37,-1,39,41,-1,-1,-1,-1,43,-1,45,47,49,-1,51,-1,-1,-1,53,55,-1,-1,57,-1,59,-1,61,-1,-1,-1,63,-1,-1,65,67,-1,-1,-1,-1,-1,-1,-1,-1,-1,-1,-1,-1,-1],"loss_changes":[9.106367E4,7.6531836E2,4.886953E3,5.0660156E1,7.9406006E2,2.8195625E3,1.6137512E1,6.03125E0,8.378948E1,1.0876084E3,7.9262695E0,1.4573438E2,5.2379303E0,3.6954803E0,0E0,0E0,1.3088348E1,2.3996758E2,3.6330414E0,1.9123877E2,0E0,6.973212E0,0E0,1.0910156E2,5.6260133E0,0E0,0E0,0E0,0E0,1.7186546E1,0E0,1.3242458E2,7.6926765E0,4.457079E0,0E0,5.089685E1,0E0,0E0,0E0,1.03515625E1,1.2452179E1,0E0,0E0,5.3262173E1,0E0,1.795459E1,0E0,6.864833E0,0E0,0E0,0E0,3.8972168E0,0E0,0E0,2.9815857E1,8.49238E0,0E0,0E0,0E0,0E0,0E0,0E0,0E0,0E0,0E0,0E0,0E0,0E0,0E0],"parents":[2147483647,0,0,1,1,2,2,3,3,4,4,5,5,6,6,7,7,8,8,9,9,10,10,11,11,12,12,13,13,16,16,17,17,18,18,19,19,21,21,23,23,24,24,29,29,31,31,32,32,33,33,35,35,39,39,40,40,43,43,45,45,47,47,51,51,54,54,55,55],"right_children":[2,4,6,8,10,12,14,16,18,20,22,24,26,28,-1,-1,30,32,34,36,-1,38,-1,40,42,-1,-1,-1,-1,44,-1,46,48,50,-1,52,-1,-1,-1,54,56,-1,-1,58,-1,60,-1,62,-1,-1,-1,64,-1,-1,66,68,-1,-1,-1,-1,-1,-1,-1,-1,-1,-1,-1,-1,-1],"split_conditions":[6.8707407E-1,6.429653E-1,4.0965536E-1,6.1903566E-1,3.4929997E-1,4.331802E-1,8.7094635E-1,5.986129E-1,2.685781E-1,3.6406255E-1,3.808543E-1,4.271843E-1,4.5361403E-1,4.2516202E-1,8.7785386E-2,-4.622294E-2,6E0,2.5759873E-1,3.7772325E-1,3.8304543E-1,-4.5333408E-2,2.4528189E-1,-4.616451E-2,1.3E1,4.6032315E-1,2.0517487E-2,-4.5770932E-2,1.0416647E-2,-4.5677695E-2,3.004885E-1,-4.4201847E-2,3.0727562E-1,3.5894644E-1,5E0,-4.5980915E-2,1.2E1,-4.0773723E-2,6.5316364E-2,-3.3502277E-2,3.6789167E-1,1.5E1,5.124728E-2,-4.272554E-2,3.2264376E-1,-4.3649726E-2,9E0,-3.7488896E-2,8E0,-4.594611E-2,3.3771012E-2,-3.217217E-2,3.221734E-1,-1.880458E-2,2.0946336E-1,9E0,2.582618E-1,-4.1419607E-2,8.6889714E-2,-4.5188375E-2,1.9559404E-1,3.6896646E-2,5.8625896E-2,-4.0321123E-2,1.9963977E-1,1.12824865E-1,1.8537834E-1,4.298868E-3,1.3752669E-1,1.5033036E-3],"split_indices":[1,1,4,1,4,6,1,1,4,6,4,2,6,4,0,0,0,6,4,2,0,2,0,0,2,0,0,0,0,4,0,2,6,0,0,0,0,0,0,4,0,0,0,6,0,0,0,0,0,0,0,4,0,0,0,4,0,0,0,0,0,0,0,0,0,0,0,0,0],"split_type":[0,0,0,0,0,0,0,0,0,0,0,0,0,0,0,0,0,0,0,0,0,0,0,0,0,0,0,0,0,0,0,0,0,0,0,0,0,0,0,0,0,0,0,0,0,0,0,0,0,0,0,0,0,0,0,0,0,0,0,0,0,0,0,0,0,0,0,0,0],"sum_hessian":[1.00168375E5,8.964916E4,1.0519216E4,8.856983E4,1.0793336E3,1.0030706E4,4.8850937E2,8.7833516E4,7.3631256E2,5.219244E2,5.574093E2,9.7701875E3,2.6051862E2,4.8407376E2,4.435618E0,8.711051E4,7.230057E2,2.4218472E2,4.941278E2,3.0694476E2,2.1497961E2,1.4785393E1,5.426239E2,9.753924E3,1.6263931E1,6.505573E0,2.5401305E2,6.505573E0,4.7756818E2,1.4607968E2,5.76926E2,7.658833E1,1.6559639E2,4.0807682E1,4.5332013E2,2.8565378E2,2.1290966E1,6.209865E0,8.575528E0,9.73559E3,1.8333887E1,4.1399097E0,1.2124022E1,7.096989E1,7.5109795E1,5.500166E1,2.1586674E1,1.4193977E1,1.5140242E2,6.209865E0,3.459782E1,2.794439E2,6.209865E0,9.682362E3,5.3227413E1,9.758359E0,8.575528E0,2.8387955E1,4.2581932E1,4.997463E1,5.0270333E0,7.3926964E0,6.8012805E0,2.720512E2,7.3926964E0,4.7313255E1,5.914157E0,5.0270333E0,4.7313256E0],"tree_param":{"num_deleted":"0","num_feature":"8","num_nodes":"69","size_leaf_vector":"1"}},{"base_weights":[3.3246174E-1,-4.425114E-1,1.65704E0,-5.8171856E-1,1.5672123E-1,1.866862E0,-3.4348446E-1,-6.2183744E-1,-3.7449083E-1,1.0402766E0,-3.7051788E-1,2.0690992E0,1.2156746E-1,6.72188E-1,-5.880433E-1,-6.3923717E-1,-5.656963E-1,-5.5112496E-2,-5.862628E-1,1.8720933E0,-4.4187337E-1,5.3548846E-2,-5.497414E-1,2.1006193E0,-2.4525718E-1,-1.7818433E-1,1.4825437E0,1.6132727E0,-4.0349263E-1,-2.3800454E-1,-6.343687E-1,-4.8949365E-2,-6.184359E-1,-4.7812596E-1,-6.2098145E-1,3.234729E-1,-6.123641E-1,-4.8455784E-1,-4.7951158E-2,1.9909483E0,-4.2271483E-1,1.5635015E0,-5.899709E-1,1.0331393E0,-5.310078E-1,-3.914485E-1,-6.146275E-1,2.112595E0,-3.789704E-1,1.1137823E0,-4.6925518E-1,3.940627E-1,-4.8860574E-1,1.7645555E0,-5.205597E-2,1.9397368E0,-2.6043162E-1,-4.915107E-1,1.089791E0,5.231689E-1,-5.79372E-1,-4.8315108E-2,-7.106781E-2,-5.9740597E-1,-4.922776E-2,-4.178717E-1,-4.9219795E-2,-5.6531155E-1,-4.804326E-2,6.326293E-1,-4.897183E-2,3.857432E-1,-4.8853558E-2,-2.501204E-1,-6.15276E-1,2.0350332E0,-4.2054477E-1,1.178427E0,-5.45349E-1,1.9508975E0,-2.745379E-2,1.9003683E-1,-6.223143E-1,1.3360931E0,-3.1941113E-1,3.5814026E-1,-6.179374E-1,-1.1579774E-1,-5.967146E-1,-5.677133E-1,-4.8683167E-2,2.1385477E0,1.7839794E0,1.24465995E-1,-5.52111E-1,1.7269512E0,3.7969145E-1,-5.3095865E-1,7.9242045E-1,8.253555E-1,-4.2958835E-1,-1.9955236E-1,-5.733042E-1,1.8950654E0,-1.3399534E-1,-2.0338807E-1,1.1821634E-1,1.9697748E0,-3.9960824E-2,-4.274991E-2,1.0026932E0,-1.0554814E-1,-4.4923477E-2,1.3238384E-1,-2.3424018E-2,1.3607184E0,-2.9450083E-1,2.683838E-2,-4.5228533E-2,8.075137E-2,-4.522099E-2,-4.244136E-2,-4.8957247E-2,-2.2806324E-2,-4.822696E-2,-3.702219E-2,-4.9135476E-2,5.837276E-2,-3.8877826E-2,1.0078138E-1,-2.9146362E-2,1.2063886E-2,-4.7460843E-2,-3.322728E-2,-4.8694547E-2,1.2854408E-1,1.5790552E-1,-4.1492593E-2,6.7273125E-2,1.3639644E-1,3.926031E-2,-1.8973647E-2,-4.6029657E-2,1.5519035E-1,8.180591E-2,8.8312335E-2,-4.4401612E-2,-2.9352378E-2,-4.8903275E-2,1.1832284E-1,-2.2169983E-2,2.0930778E-2,-4.5869227E-2,6.159256E-2,-1.5089893E-2,-2.7545273E-2,-4.879161E-2,1.489864E-2,-4.478332E-2,-3.0834584E-2,-4.8552915E-2,-3.7102778E-2,-4.778436E-2,1.624767E-1,1.3201846E-1,9.875632E-2,1.5456563E-1,-1.0202837E-2,-4.8370264E-2,1.4697917E-1,2.2308009E-2,-1.0704501E-2,1.3663757E-1,-2.943153E-3,-4.650971E-2,1.21172346E-1,-4.3243665E-2,8.225328E-2,-2.3814086E-2,-1.5881957E-3,-4.458879E-2,3.7595835E-2,-2.894434E-2,-2.7229201E-2,-4.5465782E-2,1.4803731E-1,3.0500066E-2,3.4748644E-2,-4.1344583E-2,2.1809459E-2,-3.407764E-2,1.181958E-1,1.5767239E-1,1.2654772E-1,-1.3596362E-2,-2.0586114E-2,5.873087E-2,5.5497076E-2,1.5307602E-1,-3.1882588E-2,8.953359E-2],"categories":[],"categories_nodes":[],"categories_segments":[],"categories_sizes":[],"default_left":[0,0,0,0,0,0,0,0,0,0,0,0,0,0,0,0,0,0,0,0,0,0,0,0,0,0,0,0,0,0,0,0,0,0,0,0,0,0,0,0,0,0,0,0,0,0,0,0,0,0,0,0,0,0,0,0,0,0,0,0,0,0,0,0,0,0,0,0,0,0,0,0,0,0,0,0,0,0,0,0,0,0,0,0,0,0,0,0,0,0,0,0,0,0,0,0,0,0,0,0,0,0,0,0,0,0,0,0,0,0,0,0,0,0,0,0,0,0,0,0,0,0,0,0,0,0,0,0,0,0,0,0,0,0,0,0,0,0,0,0,0,0,0,0,0,0,0,0,0,0,0,0,0,0,0,0,0,0,0,0,0,0,0,0,0,0,0,0,0,0,0,0,0,0,0,0,0,0,0,0,0,0,0,0,0,0,0,0,0,0,0,0,0,0,0,0,0,0,0,0,0],"id":4,"left_children":[1,3,5,7,9,11,13,15,17,19,21,23,25,27,29,31,33,35,37,39,41,43,45,47,49,51,53,55,57,59,61,-1,63,65,67,69,71,73,-1,75,77,79,81,83,85,87,89,91,93,95,97,99,101,103,105,107,109,111,113,115,117,-1,119,121,-1,123,-1,125,-1,127,-1,129,-1,131,133,135,137,139,141,143,-1,145,147,149,151,153,155,157,159,161,-1,163,165,-1,167,169,171,173,175,177,179,181,183,185,187,189,-1,191,-1,-1,193,195,-1,-1,-1,197,199,-1,-1,-1,-1,-1,-1,-1,-1,-1,-1,-1,-1,-1,-1,-1,-1,-1,-1,-1,-1,-1,-1,-1,-1,-1,-1,-1,-1,-1,-1,-1,-1,-1,-1,-1,-1,-1,-1,-1,-1,-1,-1,-1,-1,-1,-1,-1,-1,-1,-1,-1,-1,-1,-1,-1,-1,-1,-1,-1,-1,-1,-1,-1,-1,-1,-1,-1,-1,-1,-1,-1,-1,-1,-1,-1,-1,-1,-1,-1,-1,-1,-1,-1,-1],"loss_changes":[1.2358199E5,6.335883E3,1.8653508E4,5.1218164E2,6.670846E3,1.4195719E4,1.048405E3,5.008008E1,6.762866E2,6.59863E3,6.816605E2,2.6298125E3,1.7045206E3,8.299686E2,5.499768E1,4.8691406E0,5.8892334E1,8.4152356E2,2.7965576E1,9.3582227E2,5.7250116E2,1.5267384E3,6.451062E1,1.0567344E3,1.482228E2,6.0849994E2,3.2646167E2,2.6791174E2,5.0886185E1,1.0400245E2,4.9073486E0,0E0,5.6713867E0,4.855298E1,4.9504395E0,7.123025E2,5.1843323E1,5.756015E1,0E0,3.473584E2,3.3949837E1,9.9645325E1,4.5350525E1,4.0871216E2,1.2928912E2,1.03793884E2,5.4068604E0,2.9798438E2,6.100094E1,3.0379799E1,3.2902237E1,4.283676E2,5.425E1,1.5811157E2,2.9102404E1,2.8633057E1,2.5766693E1,1.4073273E1,2.0402773E1,8.538315E1,4.6450653E0,0E0,1.0577044E1,9.746826E0,0E0,8.93551E1,0E0,8.628479E0,0E0,2.8377783E2,0E0,3.743465E1,0E0,1.0407472E2,5.4989014E0,4.84209E1,1.0324266E1,4.145973E0,2.7338333E0,7.058136E0,0E0,5.5242477E1,8.957214E0,2.9833032E2,3.1318008E1,3.7965584E1,9.700256E0,1.16509605E2,8.476898E0,7.833557E0,0E0,5.6015625E1,3.1576953E2,0E0,5.6160774E0,1.0742287E1,2.4457924E1,1.6155571E1,2.2718235E1,2.3436304E2,2.6859879E1,6.415972E1,9.493347E0,5.0483643E1,1.0462404E1,1.3277672E1,0E0,1.3388428E1,0E0,0E0,1.0616847E1,1.1376168E1,0E0,0E0,0E0,2.3970276E1,1.2327124E1,0E0,0E0,0E0,0E0,0E0,0E0,0E0,0E0,0E0,0E0,0E0,0E0,0E0,0E0,0E0,0E0,0E0,0E0,0E0,0E0,0E0,0E0,0E0,0E0,0E0,0E0,0E0,0E0,0E0,0E0,0E0,0E0,0E0,0E0,0E0,0E0,0E0,0E0,0E0,0E0,0E0,0E0,0E0,0E0,0E0,0E0,0E0,0E0,0E0,0E0,0E0,0E0,0E0,0E0,0E0,0E0,0E0,0E0,0E0,0E0,0E0,0E0,0E0,0E0,0E0,0E0,0E0,0E0,0E0,0E0,0E0,0E0,0E0,0E0,0E0,0E0,0E0,0E0,0E0,0E0,0E0,0E0,0E0,0E0],"parents":[2147483647,0,0,1,1,2,2,3,3,4,4,5,5,6,6,7,7,8,8,9,9,10,10,11,11,12,12,13,13,14,14,15,15,16,16,17,17,18,18,19,19,20,20,21,21,22,22,23,23,24,24,25,25,26,26,27,27,28,28,29,29,30,30,32,32,33,33,34,34,35,35,36,36,37,37,39,39,40,40,41,41,42,42,43,43,44,44,45,45,46,46,47,47,48,48,49,49,50,50,51,51,52,52,53,53,54,54,55,55,56,56,57,57,58,58,59,59,60,60,62,62,63,63,65,65,67,67,69,69,71,71,73,73,74,74,75,75,76,76,77,77,78,78,79,79,81,81,82,82,83,83,84,84,85,85,86,86,87,87,88,88,89,89,91,91,92,92,94,94,95,95,96,96,97,97,98,98,99,99,100,100,101,101,102,102,103,103,104,104,105,105,107,107,110,110,111,111,115,115,116,116],"right_children":[2,4,6,8,10,12,14,16,18,20,22,24,26,28,30,32,34,36,38,40,42,44,46,48,50,52,54,56,58,60,62,-1,64,66,68,70,72,74,-1,76,78,80,82,84,86,88,90,92,94,96,98,100,102,104,106,108,110,112,114,116,118,-1,120,122,-1,124,-1,126,-1,128,-1,130,-1,132,134,136,138,140,142,144,-1,146,148,150,152,154,156,158,160,162,-1,164,166,-1,168,170,172,174,176,178,180,182,184,186,188,190,-1,192,-1,-1,194,196,-1,-1,-1,198,200,-1,-1,-1,-1,-1,-1,-1,-1,-1,-1,-1,-1,-1,-1,-1,-1,-1,-1,-1,-1,-1,-1,-1,-1,-1,-1,-1,-1,-1,-1,-1,-1,-1,-1,-1,-1,-1,-1,-1,-1,-1,-1,-1,-1,-1,-1,-1,-1,-1,-1,-1,-1,-1,-1,-1,-1,-1,-1,-1,-1,-1,-1,-1,-1,-1,-1,-1,-1,-1,-1,-1,-1,-1,-1,-1,-1,-1,-1,-1,-1,-1,-1,-1,-1],"split_conditions":[4.8660207E-1,3.615485E-1,5.241255E-1,2.8740573E-1,9E0,1.3E1,3.6150056E-1,2.1248154E-1,1E1,4.602558E-1,1.2E1,6.059887E-1,7.312371E-1,1.1E1,4.6963915E-1,1.5446158E-1,9E0,4.902943E-1,1.3E1,5.6752056E-1,2.8670686E-1,3.843286E-1,1.4E1,4.1243118E-1,2.4599138E-1,1.5E1,1.7E1,6.489135E-1,8.0424625E-1,5.9377E-1,8.7833244E-1,-4.8949365E-2,3.337924E-1,3.596229E-1,1.1E1,3.8713256E-1,3.1239918E-1,3.4936875E-1,-4.7951158E-2,3.8713256E-1,1.590183E-1,6.1260945E-1,3.73634E-1,3.1106284E-1,2.8452605E-1,3.8378432E-1,1.6E1,1.1E1,8E0,8E0,7.782254E-1,2.7724466E-1,1.6E1,3.3761E-1,9.1855943E-1,3.9943334E-1,6.830688E-1,1.3E1,1.5E1,1E1,2E0,-4.8315108E-2,5.924374E-1,4.511495E-1,-4.922776E-2,5.010235E-1,-4.9219795E-2,4.7976145E-1,-4.804326E-2,5.291752E-1,-4.897183E-2,5.6752056E-1,-4.8853558E-2,3.3003077E-1,3.2984027E-1,3.8304543E-1,4.52801E-1,7.377873E-2,3.1239918E-1,8E0,-2.745379E-2,5.662168E-1,4.699194E-1,4.8504126E-1,3.815059E-1,2.1302627E-1,4.602558E-1,3.001202E-1,3.3794186E-1,3.521396E-1,-4.8683167E-2,5.291752E-1,6.415166E-1,1.24465995E-1,4.398279E-1,7.0633215E-1,7.2232336E-1,6.4049345E-1,7.1406865E-1,4.6496812E-1,3.3761E-1,1.04348965E-1,5.0617304E-2,4.954949E-1,4.0598586E-1,1.5941139E-1,1.1821634E-1,5.933831E-1,-3.9960824E-2,-4.274991E-2,7.3784035E-1,6.7897654E-1,-4.4923477E-2,1.3238384E-1,-2.3424018E-2,6.4993185E-1,7.590891E-1,2.683838E-2,-4.5228533E-2,8.075137E-2,-4.522099E-2,-4.244136E-2,-4.8957247E-2,-2.2806324E-2,-4.822696E-2,-3.702219E-2,-4.9135476E-2,5.837276E-2,-3.8877826E-2,1.0078138E-1,-2.9146362E-2,1.2063886E-2,-4.7460843E-2,-3.322728E-2,-4.8694547E-2,1.2854408E-1,1.5790552E-1,-4.1492593E-2,6.7273125E-2,1.3639644E-1,3.926031E-2,-1.8973647E-2,-4.6029657E-2,1.5519035E-1,8.180591E-2,8.8312335E-2,-4.4401612E-2,-2.9352378E-2,-4.8903275E-2,1.1832284E-1,-2.2169983E-2,2.0930778E-2,-4.5869227E-2,6.159256E-2,-1.5089893E-2,-2.7545273E-2,-4.879161E-2,1.489864E-2,-4.478332E-2,-3.0834584E-2,-4.8552915E-2,-3.7102778E-2,-4.778436E-2,1.624767E-1,1.3201846E-1,9.875632E-2,1.5456563E-1,-1.0202837E-2,-4.8370264E-2,1.4697917E-1,2.2308009E-2,-1.0704501E-2,1.3663757E-1,-2.943153E-3,-4.650971E-2,1.21172346E-1,-4.3243665E-2,8.225328E-2,-2.3814086E-2,-1.5881957E-3,-4.458879E-2,3.7595835E-2,-2.894434E-2,-2.7229201E-2,-4.5465782E-2,1.4803731E-1,3.0500066E-2,3.4748644E-2,-4.1344583E-2,2.1809459E-2,-3.407764E-2,1.181958E-1,1.5767239E-1,1.2654772E-1,-1.3596362E-2,-2.0586114E-2,5.873087E-2,5.5497076E-2,1.5307602E-1,-3.1882588E-2,8.953359E-2],"split_indices":[2,2,5,2,0,0,4,2,0,4,0,4,2,0,4,2,0,5,0,5,5,4,0,7,5,0,0,5,2,5,2,0,7,7,0,7,4,5,0,7,4,4,5,7,5,5,0,0,0,0,2,7,0,7,2,7,2,0,0,0,0,0,4,4,0,5,0,4,0,4,0,5,0,7,4,2,2,4,4,0,0,4,5,5,7,7,4,7,4,4,0,4,2,0,7,4,2,4,4,4,7,7,7,4,7,7,0,2,0,0,5,2,0,0,0,2,2,0,0,0,0,0,0,0,0,0,0,0,0,0,0,0,0,0,0,0,0,0,0,0,0,0,0,0,0,0,0,0,0,0,0,0,0,0,0,0,0,0,0,0,0,0,0,0,0,0,0,0,0,0,0,0,0,0,0,0,0,0,0,0,0,0,0,0,0,0,0,0,0,0,0,0,0,0,0,0,0,0,0,0,0],"split_type":[0,0,0,0,0,0,0,0,0,0,0,0,0,0,0,0,0,0,0,0,0,0,0,0,0,0,0,0,0,0,0,0,0,0,0,0,0,0,0,0,0,0,0,0,0,0,0,0,0,0,0,0,0,0,0,0,0,0,0,0,0,0,0,0,0,0,0,0,0,0,0,0,0,0,0,0,0,0,0,0,0,0,0,0,0,0,0,0,0,0,0,0,0,0,0,0,0,0,0,0,0,0,0,0,0,0,0,0,0,0,0,0,0,0,0,0,0,0,0,0,0,0,0,0,0,0,0,0,0,0,0,0,0,0,0,0,0,0,0,0,0,0,0,0,0,0,0,0,0,0,0,0,0,0,0,0,0,0,0,0,0,0,0,0,0,0,0,0,0,0,0,0,0,0,0,0,0,0,0,0,0,0,0,0,0,0,0,0,0,0,0,0,0,0,0,0,0,0,0,0,0],"sum_hessian":[1.2038843E5,7.595183E4,4.4436598E4,6.1633773E4,1.4318056E4,4.0218414E4,4.2181826E3,5.1635293E4,9.998483E3,5.3505493E3,8.967507E3,3.6041855E4,4.176559E3,8.182356E2,3.3999468E3,3.9410496E4,1.2224796E4,3.986942E3,6.0115415E3,3.4269841E3,1.9235652E3,2.6642463E3,6.3032603E3,3.555767E4,4.8418204E2,3.4234268E3,7.531325E2,4.3615515E2,3.8208044E2,3.9808942E2,3.0018574E3,3.0086523E4,9.323973E3,4.7347383E3,7.4900576E3,2.3743064E3,1.6126356E3,1.8822976E3,4.1292437E3,3.2583564E3,1.6862769E2,1.3162921E2,1.791936E3,9.954014E2,1.6688448E3,1.8346266E3,4.468634E3,3.538691E4,1.707622E2,6.7949135E1,4.162329E2,1.2038737E3,2.219553E3,6.3608923E2,1.1704327E2,3.714078E2,6.474734E1,3.614467E2,2.0633768E1,1.23091095E2,2.7499832E2,2.9862043E3,1.5653203E1,5.560089E3,3.7638838E3,3.5041829E3,1.2305552E3,1.4023846E3,6.087673E3,1.8004741E3,5.738322E2,4.9805645E1,1.5628301E3,6.748665E2,1.2074312E3,3.2000127E3,5.8343758E1,1.1384148E1,1.5724355E2,1.0957242E2,2.2056786E1,7.1150925E1,1.720785E3,8.1325507E2,1.8214636E2,1.4834967E2,1.5204952E3,7.837274E2,1.0508992E3,1.6603068E3,2.808327E3,3.279168E4,2.59523E3,1.2807166E1,1.5795505E2,3.6286972E1,3.166216E1,3.973779E2,1.8854994E1,7.90131E2,4.137426E2,5.0374854E2,1.7158044E3,5.951775E2,4.091178E1,1.0779365E2,9.24962E0,3.6713876E2,4.2690554E0,5.2651684E1,1.2095657E1,7.5419975E1,2.860267E2,1.387443E1,6.7593374E0,6.0478283E1,6.2612812E1,4.62481E0,2.703735E2,4.62481E0,1.1028393E1,3.135621E3,2.4244678E3,2.2825215E3,1.2216614E3,7.303642E2,6.7202045E2,1.6080109E3,1.9246324E2,2.2056786E1,2.774886E1,3.2338095E2,3.5148557E2,1.622241E2,1.045207E3,3.9951242E2,2.8005002E3,5.371895E1,4.62481E0,4.9805646E0,6.403583E0,2.8104614E1,1.2913893E2,9.747676E1,1.2095657E1,3.1306406E1,3.9844517E1,1.5333025E2,1.5674548E3,7.14711E2,9.854403E1,5.9055267E1,1.23091095E2,8.1467804E1,6.688187E1,1.4052307E2,1.3799722E3,4.7315363E2,3.105738E2,1.9851108E2,8.5238806E2,7.4139264E2,9.189142E2,3.2412803E4,3.7887866E2,9.004149E2,1.694815E3,2.7393105E1,1.3056195E2,3.1306406E1,4.9805646E0,2.383556E1,7.8266015E0,5.7276493E1,3.401014E2,1.17399025E1,7.1150923E0,6.435601E2,1.465709E2,1.15976006E2,2.977666E2,1.042361E2,3.9951242E2,1.8997296E2,1.5258315E3,5.7276495E2,2.241254E1,1.6720467E1,2.4191315E1,3.5931217E1,7.1862434E1,8.0756294E1,2.8638248E2,7.470847E0,4.62481E0,6.403583E1,1.1384148E1,3.2017914E1,2.846037E1,5.8343758E1,4.2690554E0],"tree_param":{"num_deleted":"0","num_feature":"8","num_nodes":"201","size_leaf_vector":"1"}},{"base_weights":[2.8942644E-3,-4.973327E-1,1.7104722E0,-5.723524E-1,9.608303E-2,1.8243055E0,-2.883467E-1,-5.989636E-1,-4.052349E-1,-4.3506026E-2,1.3953856E0,1.1747285E0,2.0102181E0,1.3663146E0,-4.3730402E-1,-6.1042356E-1,-5.5824834E-1,-4.7488594E-1,-1.14514165E-1,1.9979309E-1,-4.427722E-1,1.5573901E0,-3.7827373E-1,1.410744E0,2.1917869E-1,2.051221E0,1.1761761E0,1.7095116E0,-3.5990138E-2,-5.044768E-1,9.9414295E-1,-4.662598E-2,-4.5242473E-2,-5.272132E-1,-4.5835555E-2,-3.5261455E-1,-5.8048445E-1,3.226023E-2,-5.696535E-1,7.972176E-1,-2.898827E-1,-5.250197E-1,-2.0362881E-1,1.657671E0,4.0689632E-1,-4.8597038E-1,7.5161844E-2,1.6391335E0,-6.984521E-2,5.7025783E-2,1.4360844E0,1.8427541E0,2.1038866E0,7.490208E-1,1.9484718E0,1.039953E-1,1.921932E0,-5.2223957E-1,9.631344E-1,1.673536E0,-2.836376E-2,-4.4547927E-1,-4.562125E-2,-1.6778079E-1,-5.77155E-1,-5.2003783E-1,-4.5646783E-2,2.0318145E-1,-5.6191385E-1,-3.964098E-1,-4.6156585E-2,9.503529E-1,-4.8048043E-1,1.5498553E-1,-4.7177163E-1,-4.2421868E-1,-4.427202E-2,5.536485E-2,-4.8737553E-1,1.7823546E0,6.4040977E-1,-2.9222092E-2,1.1128042E0,2.4948167E-2,-4.1701924E-2,1.0195991E0,1.7856935E0,-2.9555553E-1,1.0592868E0,5.5405444E-1,-1.5008086E-1,1.6732776E0,6.8973154E-1,1.9470772E0,1.275571E0,2.0411105E0,1.6151111E-1,1.0953431E0,2.9668275E-1,1.6609118E0,1.5775062E-1,4.3632567E-2,-3.8678166E-2,1.2152951E0,1.574915E-1,-2.1902865E-1,-5.782583E-1,1.3294068E-1,-3.8889278E-2,1.4247876E-1,3.1006293E-2,-2.8496534E-2,-4.6238113E-2,5.385875E-3,-3.257123E-2,-3.3357352E-2,-4.64227E-2,-4.2735644E-2,-3.2517016E-2,3.4064136E-2,-3.2027114E-2,-4.436361E-2,6.117028E-2,-4.2535614E-2,-4.9428837E-3,4.773794E-3,9.091726E-2,1.7283507E-2,-4.1286513E-2,4.333179E-2,-2.1441268E-2,-2.3297638E-2,-4.5578897E-2,-4.000971E-2,-2.4159417E-2,1.2705751E-2,-4.1804668E-2,-4.3397784E-2,-2.1120613E-2,1.3897543E-1,-2.623427E-2,1.5840694E-2,1.1832821E-1,-3.5865713E-2,4.1343775E-2,-1.6246503E-2,1.1143569E-1,9.277744E-2,1.8909143E-2,1.4351232E-1,9.694957E-2,3.361288E-3,-3.7849724E-2,1.142071E-1,1.4568125E-2,7.004953E-2,1.0381077E-2,2.0761658E-4,-3.0244324E-2,1.362369E-1,7.253137E-2,2.2147788E-2,1.0889225E-1,1.5054765E-1,3.26345E-2,1.1478935E-1,5.0372373E-2,1.5869866E-1,1.4005214E-1,5.1873565E-2,1.0899996E-1,1.0785074E-2,8.8409096E-2,6.2448625E-2,1.3369754E-1,5.2990373E-3,1.2000545E-1,-3.326025E-2,2.0144857E-2,-3.604545E-2,-4.658398E-2],"categories":[],"categories_nodes":[],"categories_segments":[],"categories_sizes":[],"default_left":[0,0,0,0,0,0,0,0,0,0,0,0,0,0,0,0,0,0,0,0,0,0,0,0,0,0,0,0,0,0,0,0,0,0,0,0,0,0,0,0,0,0,0,0,0,0,0,0,0,0,0,0,0,0,0,0,0,0,0,0,0,0,0,0,0,0,0,0,0,0,0,0,0,0,0,0,0,0,0,0,0,0,0,0,0,0,0,0,0,0,0,0,0,0,0,0,0,0,0,0,0,0,0,0,0,0,0,0,0,0,0,0,0,0,0,0,0,0,0,0,0,0,0,0,0,0,0,0,0,0,0,0,0,0,0,0,0,0,0,0,0,0,0,0,0,0,0,0,0,0,0,0,0,0,0,0,0,0,0,0,0,0,0,0,0,0,0,0,0,0,0,0,0,0,0,0,0,0,0,0,0],"id":5,"left_children":[1,3,5,7,9,11,13,15,17,19,21,23,25,27,29,31,33,35,37,39,41,43,45,47,49,51,53,55,-1,57,59,-1,-1,61,-1,63,65,67,69,71,73,75,77,79,81,83,-1,85,87,89,91,93,95,97,99,101,103,105,107,109,-1,111,-1,113,115,117,-1,119,121,123,-1,125,127,129,131,133,-1,135,137,139,141,143,145,-1,-1,147,149,151,153,155,157,159,161,163,165,167,-1,169,171,173,-1,-1,-1,175,-1,177,179,-1,-1,-1,-1,-1,-1,-1,-1,-1,-1,-1,-1,-1,-1,-1,-1,-1,-1,-1,-1,-1,-1,-1,-1,-1,-1,-1,-1,-1,-1,-1,-1,-1,-1,-1,-1,-1,-1,-1,-1,-1,-1,-1,-1,-1,-1,-1,-1,-1,-1,-1,-1,-1,-1,-1,-1,-1,-1,-1,-1,-1,-1,-1,-1,-1,-1,-1,-1,-1,-1,-1,-1,-1,-1],"loss_changes":[9.217638E4,3.7156328E3,5.5636875E3,3.292754E2,1.6991224E3,2.7912422E3,3.2551678E2,2.9478516E1,2.0610278E2,8.219195E2,2.617345E2,1.1611152E3,6.1259375E2,6.975522E1,1.1686301E2,2.7617188E0,1.9888672E1,1.0583923E2,1.3155817E2,1.5382913E3,6.2905518E1,9.542688E1,1.1820841E1,1.3965605E3,2.0143207E2,1.8430469E2,2.7730725E2,3.1240448E1,0E0,3.0653564E1,5.1362938E1,0E0,0E0,5.1053955E1,0E0,1.5796991E2,5.442993E0,1.514209E2,3.0174255E0,4.6387488E2,2.3392609E2,1.3912781E1,6.039661E1,9.599658E1,2.100033E1,3.9390564E0,0E0,3.2304102E2,1.4121046E2,9.295301E1,2.00961E1,2.0253223E2,1.8417969E1,8.5164154E1,7.9711914E0,3.719423E0,6.4122925E0,1.9294464E1,1.74465E1,8.77108E0,0E0,4.5791687E1,0E0,1.307547E2,8.026001E0,4.404541E0,0E0,1.7847772E2,1.1077713E1,4.949031E0,0E0,4.6710706E2,1.166679E1,1.532633E2,4.348816E1,9.480606E0,0E0,2.9400433E1,6.8041077E0,7.432446E1,3.350065E1,1.1242895E1,1.2652451E1,0E0,0E0,1.07693665E2,1.5486426E2,3.1976322E1,3.550663E1,4.0853134E1,2.42496E1,6.29541E0,8.678544E0,1.7084668E2,7.789154E1,3.7439453E1,0E0,4.2472412E1,3.1790833E1,7.103607E0,0E0,0E0,0E0,7.081444E0,0E0,1.927597E1,3.2975464E0,0E0,0E0,0E0,0E0,0E0,0E0,0E0,0E0,0E0,0E0,0E0,0E0,0E0,0E0,0E0,0E0,0E0,0E0,0E0,0E0,0E0,0E0,0E0,0E0,0E0,0E0,0E0,0E0,0E0,0E0,0E0,0E0,0E0,0E0,0E0,0E0,0E0,0E0,0E0,0E0,0E0,0E0,0E0,0E0,0E0,0E0,0E0,0E0,0E0,0E0,0E0,0E0,0E0,0E0,0E0,0E0,0E0,0E0,0E0,0E0,0E0,0E0,0E0,0E0,0E0,0E0,0E0,0E0,0E0,0E0,0E0,0E0,0E0,0E0],"parents":[2147483647,0,0,1,1,2,2,3,3,4,4,5,5,6,6,7,7,8,8,9,9,10,10,11,11,12,12,13,13,14,14,15,15,16,16,17,17,18,18,19,19,20,20,21,21,22,22,23,23,24,24,25,25,26,26,27,27,29,29,30,30,33,33,35,35,36,36,37,37,38,38,39,39,40,40,41,41,42,42,43,43,44,44,45,45,47,47,48,48,49,49,50,50,51,51,52,52,53,53,54,54,55,55,56,56,57,57,58,58,59,59,61,61,63,63,64,64,65,65,67,67,68,68,69,69,71,71,72,72,73,73,74,74,75,75,77,77,78,78,79,79,80,80,81,81,82,82,85,85,86,86,87,87,88,88,89,89,90,90,91,91,92,92,93,93,94,94,95,95,97,97,98,98,99,99,103,103,105,105,106,106],"right_children":[2,4,6,8,10,12,14,16,18,20,22,24,26,28,30,32,34,36,38,40,42,44,46,48,50,52,54,56,-1,58,60,-1,-1,62,-1,64,66,68,70,72,74,76,78,80,82,84,-1,86,88,90,92,94,96,98,100,102,104,106,108,110,-1,112,-1,114,116,118,-1,120,122,124,-1,126,128,130,132,134,-1,136,138,140,142,144,146,-1,-1,148,150,152,154,156,158,160,162,164,166,168,-1,170,172,174,-1,-1,-1,176,-1,178,180,-1,-1,-1,-1,-1,-1,-1,-1,-1,-1,-1,-1,-1,-1,-1,-1,-1,-1,-1,-1,-1,-1,-1,-1,-1,-1,-1,-1,-1,-1,-1,-1,-1,-1,-1,-1,-1,-1,-1,-1,-1,-1,-1,-1,-1,-1,-1,-1,-1,-1,-1,-1,-1,-1,-1,-1,-1,-1,-1,-1,-1,-1,-1,-1,-1,-1,-1,-1,-1,-1,-1,-1,-1,-1],"split_conditions":[5.0077736E-1,3.9107516E-1,3.596229E-1,3.099562E-1,5.024377E-1,5.924374E-1,1E1,2.2914107E-1,4.1757667E-1,5.3223294E-1,3.548061E-1,1.5E1,1.7E1,4.398279E-1,8.0511254E-1,1.6290118E-1,5.398437E-1,4.9751946E-1,3.232248E-1,1.3E1,3.2582727E-1,6.262488E-1,6.1903566E-1,6.342207E-1,5.024377E-1,6.618969E-1,7.701424E-1,5.473533E-1,-3.5990138E-2,5.663032E-1,4.2556876E-1,-4.662598E-2,-4.5242473E-2,2.561615E-1,-4.5835555E-2,2.8147542E-1,6.141746E-1,7.459227E-1,3.7018466E-1,3.4570736E-1,1.6103375E-1,6.6747093E-1,6.927566E-1,1.6E1,5.663032E-1,1E1,7.5161844E-2,2.3100433E-1,4.1086683E-1,9.0582214E-2,1.8E1,1.4E1,7.4457026E-1,1.7400546E-1,8.345803E-1,4.1967434E-1,6.3339E-1,3.8713256E-1,3.9316106E-1,1.7E1,-2.836376E-2,7.316605E-1,-4.562125E-2,1.3E1,3.4137583E-1,2.6992446E-1,-4.5646783E-2,5.938525E-1,3.5887226E-1,4.989368E-1,-4.6156585E-2,1.817141E-1,8E0,1.6E1,3.232248E-1,1.7970271E-1,-4.427202E-2,3.232248E-1,9E0,8.284167E-1,5.597897E-1,4.4214034E-1,6E0,2.4948167E-2,-4.1701924E-2,4.9385625E-1,1.3E1,7.367447E-1,7.603073E-1,1.7E1,1.8E1,2.5791177E-1,5.7308906E-1,7.188984E-1,2.1465251E-1,1.3E1,1.6151111E-1,3.446749E-1,4.8160776E-1,1.714738E-1,1.5775062E-1,4.3632567E-2,-3.8678166E-2,2.7547464E-1,1.574915E-1,6.4049345E-1,4.332141E-1,1.3294068E-1,-3.8889278E-2,1.4247876E-1,3.1006293E-2,-2.8496534E-2,-4.6238113E-2,5.385875E-3,-3.257123E-2,-3.3357352E-2,-4.64227E-2,-4.2735644E-2,-3.2517016E-2,3.4064136E-2,-3.2027114E-2,-4.436361E-2,6.117028E-2,-4.2535614E-2,-4.9428837E-3,4.773794E-3,9.091726E-2,1.7283507E-2,-4.1286513E-2,4.333179E-2,-2.1441268E-2,-2.3297638E-2,-4.5578897E-2,-4.000971E-2,-2.4159417E-2,1.2705751E-2,-4.1804668E-2,-4.3397784E-2,-2.1120613E-2,1.3897543E-1,-2.623427E-2,1.5840694E-2,1.1832821E-1,-3.5865713E-2,4.1343775E-2,-1.6246503E-2,1.1143569E-1,9.277744E-2,1.8909143E-2,1.4351232E-1,9.694957E-2,3.361288E-3,-3.7849724E-2,1.142071E-1,1.4568125E-2,7.004953E-2,1.0381077E-2,2.0761658E-4,-3.0244324E-2,1.362369E-1,7.253137E-2,2.2147788E-2,1.0889225E-1,1.5054765E-1,3.26345E-2,1.1478935E-1,5.0372373E-2,1.5869866E-1,1.4005214E-1,5.1873565E-2,1.0899996E-1,1.0785074E-2,8.8409096E-2,6.2448625E-2,1.3369754E-1,5.2990373E-3,1.2000545E-1,-3.326025E-2,2.0144857E-2,-3.604545E-2,-4.658398E-2],"split_indices":[4,4,7,4,1,4,0,4,1,3,7,0,0,7,4,4,3,3,7,0,1,3,1,3,1,4,4,4,0,1,7,0,0,7,0,7,3,1,7,7,7,3,3,0,1,0,0,1,1,7,0,0,4,7,4,3,4,7,7,0,0,1,0,0,7,1,0,3,3,1,0,1,0,0,7,1,0,7,0,1,1,4,0,0,0,3,0,3,3,0,0,7,1,3,7,0,0,1,1,1,0,0,0,1,0,4,7,0,0,0,0,0,0,0,0,0,0,0,0,0,0,0,0,0,0,0,0,0,0,0,0,0,0,0,0,0,0,0,0,0,0,0,0,0,0,0,0,0,0,0,0,0,0,0,0,0,0,0,0,0,0,0,0,0,0,0,0,0,0,0,0,0,0,0,0,0,0,0,0,0,0],"split_type":[0,0,0,0,0,0,0,0,0,0,0,0,0,0,0,0,0,0,0,0,0,0,0,0,0,0,0,0,0,0,0,0,0,0,0,0,0,0,0,0,0,0,0,0,0,0,0,0,0,0,0,0,0,0,0,0,0,0,0,0,0,0,0,0,0,0,0,0,0,0,0,0,0,0,0,0,0,0,0,0,0,0,0,0,0,0,0,0,0,0,0,0,0,0,0,0,0,0,0,0,0,0,0,0,0,0,0,0,0,0,0,0,0,0,0,0,0,0,0,0,0,0,0,0,0,0,0,0,0,0,0,0,0,0,0,0,0,0,0,0,0,0,0,0,0,0,0,0,0,0,0,0,0,0,0,0,0,0,0,0,0,0,0,0,0,0,0,0,0,0,0,0,0,0,0,0,0,0,0,0,0],"sum_hessian":[1.0791058E5,8.34616E4,2.4448977E4,7.4094586E4,9.367013E3,2.3131705E4,1.3172703E3,6.391448E4,1.01801045E4,8.459178E3,9.078353E2,5.1488804E3,1.7982826E4,1.08115814E2,1.2091544E3,4.9865156E4,1.4049328E4,8.212028E3,1.968076E3,5.256529E3,3.2026487E3,8.319662E2,7.5869095E1,4.1286504E3,1.02022986E3,1.7138797E4,8.4402826E2,9.118839E1,1.6927423E1,1.155575E3,5.3579475E1,3.7282438E4,1.2582716E4,8.421701E3,5.627627E3,3.807594E3,4.4044346E3,1.4888707E3,4.7920538E2,2.3674792E3,2.8890496E3,2.3821658E3,8.204829E2,7.648578E2,6.71084E1,7.093665E1,4.932445E0,3.5768013E3,5.518493E2,9.011926E2,1.19037224E2,3.4638413E3,1.3674956E4,5.447165E2,2.993117E2,1.0829133E1,8.035926E1,1.1423926E3,1.31824465E1,3.5653316E1,1.7926159E1,4.0206265E3,4.4010747E3,2.0894114E3,1.7181825E3,1.1667616E3,3.2376729E3,1.1567701E3,3.3210056E2,9.042062E1,3.8878476E2,2.114328E3,2.5315121E2,8.384635E2,2.0505862E3,8.8204193E2,1.5001238E3,4.2937238E2,3.9111053E2,6.806766E2,8.418127E1,4.207349E1,2.503491E1,4.8703666E0,6.6066284E1,6.8579333E2,2.8910078E3,4.6052905E2,9.132024E1,2.645742E2,6.3661847E2,8.938762E1,2.96496E1,2.9236553E3,5.4018616E2,4.0837493E3,9.591206E3,3.077065E2,2.3701E2,9.859778E1,2.0071394E2,6.161521E0,4.667612E0,1.6080088E1,6.4279175E1,1.7891168E2,9.6348083E2,8.462868E0,4.7195787E0,3.0244513E1,5.408805E0,2.8271882E3,1.1934382E3,1.0931306E3,9.962808E2,3.5349765E2,1.3646848E3,7.852939E2,3.8146768E2,8.30366E2,3.2640408E2,3.271141E2,4.986468E0,5.9932686E1,3.0487936E1,4.6338904E2,1.6509388E3,2.0793978E1,2.3235722E2,4.2949036E2,4.0897318E2,9.045644E2,1.1460217E3,4.432615E2,4.3878046E2,3.629635E2,6.640885E1,2.7665802E2,1.14452515E2,6.649476E2,1.5728945E1,5.8148956E1,2.6032312E1,2.3836191E1,1.8237299E1,5.3926716E0,1.9642239E1,5.416208E2,1.4417259E2,2.383706E3,5.0730185E2,1.7286601E2,2.8766306E2,5.9764225E1,3.1556007E1,1.3957564E2,1.2499856E2,3.9502563E2,2.415928E2,7.4938416E1,1.4449208E1,2.0254595E1,9.395004E0,2.8505876E3,7.3067444E1,3.8746655E2,1.5271959E2,3.2094531E3,8.742962E2,1.4118932E2,1.6651721E2,2.022524E2,3.4757595E1,1.1751357E1,8.684642E1,4.1962304E0,1.1883858E1,1.2318094E2,5.5730743E1,2.5461646E2,7.088644E2],"tree_param":{"num_deleted":"0","num_feature":"8","num_nodes":"181","size_leaf_vector":"1"}},{"base_weights":[-1.2211205E-1,-5.3548634E-1,1.7358116E0,-5.8601207E-1,1.5922797E-1,1.9226749E0,-2.9018387E-1,-5.985956E-1,-3.9703453E-1,1.2625918E0,-1.7449532E-1,2.0335908E0,-3.6206338E-1,1.917031E0,-4.2939377E-1,-6.0466754E-1,-5.44117E-1,-1.05842665E-1,-5.59931E-1,1.6784928E0,-5.2262837E-1,2.3155235E-1,-4.8691168E-1,2.1039815E0,-2.3323104E-1,1.8202509E0,-4.6899477E-1,2.0350726E0,-1.354884E-2,-4.864685E-1,1.2953274E0,-4.6094153E-2,-5.8931696E-1,-4.284813E-1,-4.540432E-2,2.1341509E-1,-5.4294115E-1,-4.2264515E-1,-4.5868278E-2,1.8622242E0,-4.1168645E-1,1.4555556E-1,-4.6110015E-2,7.130667E-1,-4.185885E-1,-2.71538E-1,-4.4688985E-2,1.8017595E0,2.1981378E0,1.572819E-1,-3.7468743E-1,1.6965407E-1,-3.9443426E-2,-4.9871284E-1,1.2918862E0,1.5937789E-1,5.236535E-2,-1.9170785E-1,-4.5438595E-2,1.5182087E-1,-6.706532E-2,-5.511122E-1,-4.6042673E-2,-2.8534147E-1,-4.5251742E-2,4.4478363E-1,-4.041435E-1,-2.2598031E-1,-4.57373E-2,-1.8183324E-1,-4.4223815E-2,1.9155666E0,-3.4373108E-1,1.2510155E-1,-4.6347518E-2,8.209416E-1,-3.4675438E-2,1.160173E0,-3.538261E-1,-1.1436084E-1,-4.3851882E-2,3.046762E-1,-4.18867E-1,2.103095E0,1.288696E0,2.1076012E0,2.2376962E0,2.512569E-1,-4.42218E-2,-1.1882923E-1,-5.722295E-1,1.4119066E-1,6.3936054E-3,-3.4098285E-1,7.183156E-1,6.962435E-2,-4.276273E-2,-3.7934195E-2,-4.6208214E-2,-3.2318767E-2,-1.2549347E-2,2.0054574E-3,4.2824168E-2,-1.3132717E-3,-4.011497E-2,1.9416105E-2,-3.358791E-2,4.8856465E-3,-4.363213E-2,1.1305247E-1,1.5414113E-1,3.665656E-2,-4.4225715E-2,6.4821735E-2,-2.9220881E-2,1.0256678E-1,-1.28309475E-2,1.09207116E-1,5.3891417E-2,2.4369149E-2,-4.057179E-2,1.7400125E-2,-4.408542E-2,5.7020392E-2,-3.7991114E-2,-1.5616647E-2,-4.274771E-2,1.6243695E-1,1.3131107E-1,1.1672042E-1,4.6098407E-2,1.6406265E-1,1.4256543E-1,1.6698436E-1,1.7330009E-1,-1.0286009E-2,1.0819282E-1,4.3038834E-2,-3.1714473E-2,-4.4309985E-2,4.051276E-3,-8.977173E-3,-4.3924615E-2,9.092691E-2,-3.4974307E-2],"categories":[],"categories_nodes":[],"categories_segments":[],"categories_sizes":[],"default_left":[0,0,0,0,0,0,0,0,0,0,0,0,0,0,0,0,0,0,0,0,0,0,0,0,0,0,0,0,0,0,0,0,0,0,0,0,0,0,0,0,0,0,0,0,0,0,0,0,0,0,0,0,0,0,0,0,0,0,0,0,0,0,0,0,0,0,0,0,0,0,0,0,0,0,0,0,0,0,0,0,0,0,0,0,0,0,0,0,0,0,0,0,0,0,0,0,0,0,0,0,0,0,0,0,0,0,0,0,0,0,0,0,0,0,0,0,0,0,0,0,0,0,0,0,0,0,0,0,0,0,0,0,0,0,0,0,0,0,0,0,0,0,0,0,0],"id":6,"left_children":[1,3,5,7,9,11,13,15,17,19,21,23,25,27,29,31,33,35,37,39,41,43,45,47,49,51,53,55,-1,57,59,-1,61,63,-1,65,67,69,-1,71,73,75,-1,77,79,81,-1,83,85,-1,87,-1,-1,89,91,-1,-1,93,-1,-1,95,97,-1,99,-1,101,103,105,-1,107,-1,109,111,113,-1,115,-1,117,119,121,-1,123,125,127,129,131,133,135,-1,137,139,-1,-1,141,143,-1,-1,-1,-1,-1,-1,-1,-1,-1,-1,-1,-1,-1,-1,-1,-1,-1,-1,-1,-1,-1,-1,-1,-1,-1,-1,-1,-1,-1,-1,-1,-1,-1,-1,-1,-1,-1,-1,-1,-1,-1,-1,-1,-1,-1,-1,-1,-1,-1,-1],"loss_changes":[7.9257586E4,2.9631582E3,7.111074E3,1.8689258E2,2.1078962E3,4.3584375E3,4.8842126E2,2.4078125E1,2.3311603E2,9.878916E2,5.5772437E2,2.6173281E3,1.8684058E2,2.3699738E1,1.4765326E2,3.0371094E0,4.6675537E1,2.463722E2,1.9256897E1,4.1491138E2,1.4495857E1,5.988761E2,5.4717957E1,4.4865625E2,1.6231757E2,3.774787E1,4.0444885E1,6.6213684E0,0E0,4.8014496E1,4.6495842E1,0E0,7.8339844E0,5.732361E1,0E0,1.4599657E2,1.4118164E1,3.0178299E1,0E0,1.17323975E2,9.502859E0,1.2352741E1,0E0,5.2458374E2,3.9525986E1,6.832251E1,0E0,5.822998E2,3.870703E1,0E0,6.114081E1,0E0,0E0,2.0840652E1,8.730543E0,0E0,0E0,5.485699E1,0E0,0E0,9.044572E0,1.0998291E1,0E0,2.1734688E1,0E0,3.730327E1,1.3463726E1,1.2753042E1,0E0,3.054755E1,0E0,4.5293945E1,5.0903664E0,9.524929E0,0E0,7.724758E0,0E0,9.65365E1,4.0001446E1,4.538272E1,0E0,5.9560837E1,1.96427E1,3.121875E1,2.3859644E2,4.3414062E1,9.214844E0,5.3634823E1,0E0,2.545711E1,4.8321686E0,0E0,0E0,1.8293E1,3.2884163E1,0E0,0E0,0E0,0E0,0E0,0E0,0E0,0E0,0E0,0E0,0E0,0E0,0E0,0E0,0E0,0E0,0E0,0E0,0E0,0E0,0E0,0E0,0E0,0E0,0E0,0E0,0E0,0E0,0E0,0E0,0E0,0E0,0E0,0E0,0E0,0E0,0E0,0E0,0E0,0E0,0E0,0E0,0E0,0E0,0E0,0E0,0E0,0E0,0E0,0E0],"parents":[2147483647,0,0,1,1,2,2,3,3,4,4,5,5,6,6,7,7,8,8,9,9,10,10,11,11,12,12,13,13,14,14,15,15,16,16,17,17,18,18,19,19,20,20,21,21,22,22,23,23,24,24,25,25,26,26,27,27,29,29,30,30,32,32,33,33,35,35,36,36,37,37,39,39,40,40,41,41,43,43,44,44,45,45,47,47,48,48,50,50,53,53,54,54,57,57,60,60,61,61,63,63,65,65,66,66,67,67,69,69,71,71,72,72,73,73,75,75,77,77,78,78,79,79,81,81,82,82,83,83,84,84,85,85,86,86,87,87,89,89,90,90,93,93,94,94],"right_children":[2,4,6,8,10,12,14,16,18,20,22,24,26,28,30,32,34,36,38,40,42,44,46,48,50,52,54,56,-1,58,60,-1,62,64,-1,66,68,70,-1,72,74,76,-1,78,80,82,-1,84,86,-1,88,-1,-1,90,92,-1,-1,94,-1,-1,96,98,-1,100,-1,102,104,106,-1,108,-1,110,112,114,-1,116,-1,118,120,122,-1,124,126,128,130,132,134,136,-1,138,140,-1,-1,142,144,-1,-1,-1,-1,-1,-1,-1,-1,-1,-1,-1,-1,-1,-1,-1,-1,-1,-1,-1,-1,-1,-1,-1,-1,-1,-1,-1,-1,-1,-1,-1,-1,-1,-1,-1,-1,-1,-1,-1,-1,-1,-1,-1,-1,-1,-1,-1,-1,-1,-1],"split_conditions":[4.8230952E-1,3.6970404E-1,3.4634396E-1,3.1014684E-1,1.1E1,3.671365E-1,9E0,2.594929E-1,2.4013568E-1,3.383514E-1,2.3692323E-1,3.7234622E-1,9E0,3.2223573E-1,8.211032E-1,1.9681585E-1,2.5536153E-1,2.960181E-1,3.417061E-1,3.582042E-1,3.7599355E-1,2.676611E-1,3.3250105E-1,6.054919E-1,9E0,4.3361464E-1,8.596192E-1,4.2942277E-1,-1.354884E-2,3.9820457E-1,3.9820457E-1,-4.6094153E-2,2.7129304E-1,3.051495E-1,-4.540432E-2,2.8452605E-1,3.406916E-1,2.538233E-1,-4.5868278E-2,3.671365E-1,4.2516202E-1,1.9918422E-1,-4.6110015E-2,2.9580402E-1,3.5211712E-1,1.0608823E-1,-4.4688985E-2,1.3E1,7.07384E-1,1.572819E-1,4.1281834E-1,1.6965407E-1,-3.9443426E-2,3.947417E-1,4.0189806E-1,1.5937789E-1,5.236535E-2,6.893577E-1,-4.5438595E-2,1.5182087E-1,1.4900054E-1,3.247292E-1,-4.6042673E-2,7E0,-4.5251742E-2,4E0,1.2E1,1.2E1,-4.57373E-2,3.004885E-1,-4.4223815E-2,3.9895433E-1,9E0,1.9126692E-1,-4.6347518E-2,2.3461133E-1,-3.4675438E-2,1.5989792E-1,3.383514E-1,3.0727562E-1,-4.3851882E-2,3.043722E-1,2.4273269E-1,1.2E1,2.2744294E-1,1.5E1,1.1E1,6.893577E-1,-4.42218E-2,1.7597345E-1,7.873387E-1,1.4119066E-1,6.3936054E-3,2.740038E-1,3.0727562E-1,6.962435E-2,-4.276273E-2,-3.7934195E-2,-4.6208214E-2,-3.2318767E-2,-1.2549347E-2,2.0054574E-3,4.2824168E-2,-1.3132717E-3,-4.011497E-2,1.9416105E-2,-3.358791E-2,4.8856465E-3,-4.363213E-2,1.1305247E-1,1.5414113E-1,3.665656E-2,-4.4225715E-2,6.4821735E-2,-2.9220881E-2,1.0256678E-1,-1.28309475E-2,1.09207116E-1,5.3891417E-2,2.4369149E-2,-4.057179E-2,1.7400125E-2,-4.408542E-2,5.7020392E-2,-3.7991114E-2,-1.5616647E-2,-4.274771E-2,1.6243695E-1,1.3131107E-1,1.1672042E-1,4.6098407E-2,1.6406265E-1,1.4256543E-1,1.6698436E-1,1.7330009E-1,-1.0286009E-2,1.0819282E-1,4.3038834E-2,-3.1714473E-2,-4.4309985E-2,4.051276E-3,-8.977173E-3,-4.3924615E-2,9.092691E-2,-3.4974307E-2],"split_indices":[6,6,4,6,0,5,0,6,2,2,4,2,0,2,6,6,2,4,2,4,2,5,4,6,0,5,6,4,0,4,4,0,2,4,0,5,4,5,0,5,4,4,0,2,5,5,0,0,6,0,2,0,0,5,5,0,0,6,0,0,2,4,0,0,0,0,0,0,0,4,0,6,0,5,0,5,0,2,2,2,0,2,2,0,2,0,0,6,0,2,6,0,0,5,2,0,0,0,0,0,0,0,0,0,0,0,0,0,0,0,0,0,0,0,0,0,0,0,0,0,0,0,0,0,0,0,0,0,0,0,0,0,0,0,0,0,0,0,0,0,0,0,0,0,0],"split_type":[0,0,0,0,0,0,0,0,0,0,0,0,0,0,0,0,0,0,0,0,0,0,0,0,0,0,0,0,0,0,0,0,0,0,0,0,0,0,0,0,0,0,0,0,0,0,0,0,0,0,0,0,0,0,0,0,0,0,0,0,0,0,0,0,0,0,0,0,0,0,0,0,0,0,0,0,0,0,0,0,0,0,0,0,0,0,0,0,0,0,0,0,0,0,0,0,0,0,0,0,0,0,0,0,0,0,0,0,0,0,0,0,0,0,0,0,0,0,0,0,0,0,0,0,0,0,0,0,0,0,0,0,0,0,0,0,0,0,0,0,0,0,0,0,0],"sum_hessian":[1.0319537E5,8.4414484E4,1.8780885E4,7.86915E4,5.722986E3,1.7194994E4,1.5858915E3,7.377673E4,4.9147725E3,1.328357E3,4.394629E3,1.6398992E4,7.9600275E2,9.333091E1,1.4925605E3,6.6369445E4,7.407281E3,1.7636827E3,3.1510898E3,1.077413E3,2.5094402E2,1.9110697E3,2.4835593E3,1.5905167E4,4.9382465E2,3.6433125E1,7.5956964E2,8.838181E1,4.949099E0,1.4454456E3,4.7114952E1,5.4495516E4,1.1873929E4,2.3840532E3,5.0232275E3,1.0195285E3,7.4415424E2,7.816423E2,2.3694475E3,9.9045856E2,8.695445E1,2.8412483E1,2.2253152E2,1.0978623E3,8.132074E2,8.023035E2,1.6812557E3,3.7829182E3,1.2122249E4,2.7730959E1,4.660937E2,3.0954603E1,5.4785204E0,7.4766815E2,1.1901484E1,8.363793E1,4.7438865E0,4.010211E2,1.0444246E3,3.0705183E1,1.640977E1,3.8136018E3,8.060327E3,1.2901637E3,1.0938895E3,7.418674E2,2.776611E2,1.1978988E2,6.243644E2,3.1367865E2,4.679636E2,9.672022E2,2.3256344E1,2.3675379E1,6.3279076E1,1.323059E1,1.5181893E1,7.735857E2,3.242766E2,2.8068167E2,5.3252576E2,1.6314885E2,6.391547E2,2.381249E3,1.4016692E3,3.7025566E3,8.419692E3,1.1645919E2,3.496345E2,1.2165501E2,6.260131E2,7.7146306E0,4.186853E0,3.4504688E2,5.5974205E1,5.2172084E0,1.1192561E1,2.04557E3,1.7680317E3,5.9159485E2,6.985689E2,1.6573401E2,5.7613336E2,6.808597E1,2.0957513E2,3.7134415E1,8.2655464E1,1.9348149E2,1.20197174E2,2.1287097E2,7.5433124E2,4.9948897E0,1.8261454E1,9.466373E0,1.4209004E1,8.368488E0,4.862102E0,4.750281E2,2.985576E2,6.848241E1,2.557942E2,1.6196452E2,1.18717155E2,1.049424E2,5.820645E1,2.5993835E2,3.7921637E2,2.1477385E3,2.3351054E2,1.02322736E3,3.7844183E2,2.9585723E3,7.439844E2,4.8990327E3,3.5206594E3,8.829038E1,2.816881E1,3.6679737E1,8.497527E1,6.14068E2,1.1945145E1,1.7922247E2,1.658244E2,3.9748394E1,1.622581E1],"tree_param":{"num_deleted":"0","num_feature":"8","num_nodes":"145","size_leaf_vector":"1"}},{"base_weights":[6.778947E-4,-4.6684977E-1,1.1800541E0,-5.661147E-1,1.1704614E-1,1.349602E0,-1.5210819E-1,-5.933104E-1,-2.9501227E-1,3.0487457E-1,-4.7341678E-1,1.5795912E0,-6.243016E-2,1.5725229E0,-4.17972E-1,-6.0723144E-1,-4.7692797E-1,-4.1678917E-1,-4.5887552E-2,4.4632247E-1,-4.1425848E-1,1.018261E0,-5.553329E-1,1.6670239E0,1.0197132E-1,-2.4779467E-1,1.9464934E0,9.8461294E-1,1.9666827E0,-4.9363878E-1,1.6737536E0,-4.650793E-2,-5.644259E-1,-5.186944E-1,-3.4252566E-1,-3.200013E-1,-5.751277E-1,2.7891085E-1,-4.93945E-1,1.1270512E-1,8.9776564E-1,-4.9922025E-1,1.699078E0,5.862038E-1,1.6611029E-1,-5.75353E-1,1.6212748E0,1.3068973E0,1.8213676E0,1.6037757E0,-2.5797418E-1,-3.5879388E-1,1.8981481E0,1.3352262E0,1.6404398E-1,1.4482515E0,8.9267045E-2,1.6728239E0,1.6211633E-1,-2.0300165E-2,-5.575272E-1,1.8365657E0,-4.190114E-2,-4.4355888E-2,-5.015853E-1,-4.799377E-1,-5.909001E-1,-3.9710112E-2,-5.503559E-1,-4.4263092E-1,-2.0136146E-1,-1.548847E-1,-4.556E-2,3.9707232E-1,-4.5221955E-1,-5.390986E-1,1.2910287E-1,2.3042688E-1,-4.4433293E-1,4.4975924E-1,1.3330024E0,-5.501112E-1,1.547883E0,1.825345E0,1.6629677E-2,1.0372792E0,-2.8622872E-1,-3.5340688E-1,-4.5694884E-2,1.5214911E-1,-1.0401437E-2,-8.5752875E-2,1.3699155E0,1.9002451E0,1.3040949E0,1.7889947E0,3.2906765E-1,-3.706491E-1,1.9438659E0,-1.1702003E-1,-5.441688E-1,1.9727359E0,7.032535E-1,1.745912E0,4.5740858E-1,1.5831989E0,-8.559694E-3,-2.2398445E-1,1.2262573E0,1.8459661E0,6.691294E-1,3.750409E-1,-4.6532378E-1,-4.424976E-1,-4.5481965E-2,1.478994E-1,5.7202655E-1,-3.121696E-2,-4.4636175E-2,-4.0626034E-2,-3.1655878E-2,-3.491613E-3,-4.6111543E-2,-2.1029461E-2,9.938069E-3,-4.319434E-2,1.4467208E-1,-4.0930867E-2,-3.0102795E-2,-4.1733477E-2,-1.0322871E-2,9.840991E-3,-3.6611397E-2,9.797879E-3,6.611829E-2,-3.927318E-2,1.2800102E-1,-4.3213733E-2,1.3517213E-1,-3.3899385E-2,2.6797483E-2,4.0642034E-2,-3.9421216E-2,6.3130218E-3,1.17367215E-1,1.0924378E-1,-4.986168E-3,-4.27965E-2,-1.6192479E-2,5.4669302E-2,1.5862475E-1,7.726924E-2,1.4783436E-1,-1.3645235E-3,9.190945E-2,1.2143615E-2,-3.4774322E-2,-3.3288855E-2,1.9006435E-2,-3.1830583E-2,3.100567E-2,6.3645735E-2,1.1275794E-1,1.4504772E-1,4.307388E-3,6.9150105E-2,1.5579581E-1,1.445382E-1,1.5689926E-2,1.267777E-1,-1.1508929E-3,2.151112E-3,-3.6613528E-2,8.010248E-2,1.5624845E-1,-2.0280035E-2,3.7556175E-2,-3.5737086E-2,-4.5411218E-2,1.07285544E-1,1.5518138E-1,-3.8544133E-2,1.1104812E-1,6.4564176E-2,1.4205104E-1,-6.0147704E-3,1.3009675E-1,8.24594E-2,1.4724313E-1,7.268466E-2,-2.9482285E-2,1.2331195E-1,1.7836096E-2,1.4486502E-1,7.121502E-2,1.3009939E-1,-3.8760868E-3,4.8250197E-3,9.646163E-2,-4.1411452E-2,-6.2536094E-3,-1.7618913E-2,-4.3461557E-2,8.937873E-2,-1.1053789E-2],"categories":[],"categories_nodes":[],"categories_segments":[],"categories_sizes":[],"default_left":[0,0,0,0,0,0,0,0,0,0,0,0,0,0,0,0,0,0,0,0,0,0,0,0,0,0,0,0,0,0,0,0,0,0,0,0,0,0,0,0,0,0,0,0,0,0,0,0,0,0,0,0,0,0,0,0,0,0,0,0,0,0,0,0,0,0,0,0,0,0,0,0,0,0,0,0,0,0,0,0,0,0,0,0,0,0,0,0,0,0,0,0,0,0,0,0,0,0,0,0,0,0,0,0,0,0,0,0,0,0,0,0,0,0,0,0,0,0,0,0,0,0,0,0,0,0,0,0,0,0,0,0,0,0,0,0,0,0,0,0,0,0,0,0,0,0,0,0,0,0,0,0,0,0,0,0,0,0,0,0,0,0,0,0,0,0,0,0,0,0,0,0,0,0,0,0,0,0,0,0,0,0,0,0,0,0,0,0,0,0,0,0,0,0,0,0,0,0,0,0,0,0,0,0,0],"id":7,"left_children":[1,3,5,7,9,11,13,15,17,19,21,23,25,27,29,31,33,35,37,39,41,43,45,47,49,51,53,55,57,59,61,-1,63,65,67,69,71,73,75,77,79,81,83,85,-1,87,89,91,93,95,97,99,101,103,-1,105,107,109,-1,111,113,115,-1,-1,117,119,121,123,125,127,129,131,-1,133,135,137,-1,139,141,143,145,147,149,151,-1,153,155,157,-1,-1,-1,159,161,163,165,167,169,171,173,175,177,179,181,183,185,187,-1,189,191,193,195,197,199,201,-1,-1,203,-1,-1,-1,-1,-1,-1,-1,-1,-1,-1,-1,-1,-1,-1,-1,-1,-1,-1,-1,-1,-1,-1,-1,-1,-1,-1,-1,-1,-1,-1,-1,-1,-1,-1,-1,-1,-1,-1,-1,-1,-1,-1,-1,-1,-1,-1,-1,-1,-1,-1,-1,-1,-1,-1,-1,-1,-1,-1,-1,-1,-1,-1,-1,-1,-1,-1,-1,-1,-1,-1,-1,-1,-1,-1,-1,-1,-1,-1,-1,-1,-1,-1,-1,-1,-1,-1,-1,-1],"loss_changes":[5.9451113E4,4.4753027E3,6.9135664E3,4.863789E2,1.2444968E3,8.817977E3,1.5856019E3,9.688086E1,1.8256909E2,8.661024E2,3.3147998E2,3.016414E3,1.4170603E3,1.0510132E2,4.7497913E2,1.39296875E1,3.5817017E1,6.1766235E1,2.8787204E2,1.071343E3,2.521693E2,7.033002E1,1.1282764E2,1.2229531E3,7.0612714E2,8.304724E2,3.9813843E1,7.766019E1,1.0324097E1,8.744385E1,3.900952E1,0E0,8.549561E0,1.3401001E1,9.583664E1,3.6443665E1,1.6538544E1,9.9260956E1,8.3378265E1,2.6843948E2,5.8885815E2,1.41116E2,9.7495575E0,4.1478794E1,0E0,1.5254578E1,1.6323345E1,5.8085547E2,6.2703516E2,5.9036255E1,2.622005E2,1.4842691E2,1.3896423E1,3.0538086E1,0E0,2.6174744E1,2.342434E1,1.7221191E1,0E0,6.08648E1,1.2161499E1,1.3033417E1,0E0,0E0,1.3012268E1,1.0898621E1,1.6058716E1,2.5245392E1,4.415619E1,5.253937E0,2.9017918E1,8.474135E0,0E0,1.2557825E2,2.3419174E1,5.9532303E1,0E0,2.8184973E2,5.3253906E1,6.001229E2,2.315935E2,6.2460327E0,1.3310097E1,3.0284576E0,0E0,1.2804062E1,2.8795948E0,1.4704117E1,0E0,0E0,0E0,4.7678204E1,3.9299414E2,3.205547E2,5.999375E2,4.056122E1,1.5406728E1,4.4980057E1,3.1708374E0,1.327549E2,7.199341E0,3.7561035E0,1.1475467E1,5.131836E0,1.9768139E1,1.8103943E1,0E0,1.0476097E1,5.2476482E0,3.498291E0,1.3053026E1,5.1117805E1,4.9955177E0,1.8826538E1,0E0,0E0,4.323758E0,0E0,0E0,0E0,0E0,0E0,0E0,0E0,0E0,0E0,0E0,0E0,0E0,0E0,0E0,0E0,0E0,0E0,0E0,0E0,0E0,0E0,0E0,0E0,0E0,0E0,0E0,0E0,0E0,0E0,0E0,0E0,0E0,0E0,0E0,0E0,0E0,0E0,0E0,0E0,0E0,0E0,0E0,0E0,0E0,0E0,0E0,0E0,0E0,0E0,0E0,0E0,0E0,0E0,0E0,0E0,0E0,0E0,0E0,0E0,0E0,0E0,0E0,0E0,0E0,0E0,0E0,0E0,0E0,0E0,0E0,0E0,0E0,0E0,0E0,0E0,0E0,0E0,0E0,0E0,0E0,0E0,0E0,0E0,0E0,0E0,0E0,0E0,0E0],"parents":[2147483647,0,0,1,1,2,2,3,3,4,4,5,5,6,6,7,7,8,8,9,9,10,10,11,11,12,12,13,13,14,14,15,15,16,16,17,17,18,18,19,19,20,20,21,21,22,22,23,23,24,24,25,25,26,26,27,27,28,28,29,29,30,30,32,32,33,33,34,34,35,35,36,36,37,37,38,38,39,39,40,40,41,41,42,42,43,43,45,45,46,46,47,47,48,48,49,49,50,50,51,51,52,52,53,53,55,55,56,56,57,57,59,59,60,60,61,61,64,64,65,65,66,66,67,67,68,68,69,69,70,70,71,71,73,73,74,74,75,75,77,77,78,78,79,79,80,80,81,81,82,82,83,83,85,85,86,86,87,87,91,91,92,92,93,93,94,94,95,95,96,96,97,97,98,98,99,99,100,100,101,101,102,102,103,103,104,104,105,105,107,107,108,108,109,109,110,110,111,111,112,112,113,113,116,116],"right_children":[2,4,6,8,10,12,14,16,18,20,22,24,26,28,30,32,34,36,38,40,42,44,46,48,50,52,54,56,58,60,62,-1,64,66,68,70,72,74,76,78,80,82,84,86,-1,88,90,92,94,96,98,100,102,104,-1,106,108,110,-1,112,114,116,-1,-1,118,120,122,124,126,128,130,132,-1,134,136,138,-1,140,142,144,146,148,150,152,-1,154,156,158,-1,-1,-1,160,162,164,166,168,170,172,174,176,178,180,182,184,186,188,-1,190,192,194,196,198,200,202,-1,-1,204,-1,-1,-1,-1,-1,-1,-1,-1,-1,-1,-1,-1,-1,-1,-1,-1,-1,-1,-1,-1,-1,-1,-1,-1,-1,-1,-1,-1,-1,-1,-1,-1,-1,-1,-1,-1,-1,-1,-1,-1,-1,-1,-1,-1,-1,-1,-1,-1,-1,-1,-1,-1,-1,-1,-1,-1,-1,-1,-1,-1,-1,-1,-1,-1,-1,-1,-1,-1,-1,-1,-1,-1,-1,-1,-1,-1,-1,-1,-1,-1,-1,-1,-1,-1,-1,-1,-1,-1],"split_conditions":[1.3E1,1.1E1,6.546536E-1,1E1,6.1260945E-1,6.293415E-1,3.550385E-1,9E0,2.6164252E-1,6.3739645E-1,3.2206672E-1,6.928661E-1,3.4634396E-1,2.1154092E-1,3.7018466E-1,8E0,3.0540824E-1,5.4832894E-1,5.9745806E-1,2.4343276E-1,3.671365E-1,3.232248E-1,3.9316106E-1,1.5E1,3.2984027E-1,3.671365E-1,3.9107516E-1,7.701424E-1,3.232248E-1,4.79956E-1,7.629939E-1,-4.650793E-2,2.7117318E-1,5.241255E-1,5.583015E-1,8.875217E-2,3.744839E-1,6.4772695E-1,3.6789167E-1,6.209152E-1,2.2887513E-1,3.5503507E-1,8.4718007E-1,7.701424E-1,1.6611029E-1,4.6482575E-1,6.8537605E-1,5.5776518E-2,5.0527275E-1,8.5646427E-1,3.756933E-1,7.552624E-1,8.4718007E-1,7.552624E-1,1.6404398E-1,5.142086E-1,1.7E1,7.9600286E-1,1.6211633E-1,7.786161E-1,6.209152E-1,8.345803E-1,-4.190114E-2,-4.4355888E-2,5.583015E-1,1.04348965E-1,2.8708288E-1,1.6259252E-1,4.0189806E-1,1.6520815E-1,7.812861E-2,6.8537605E-1,-4.556E-2,2.8885823E-1,4.1882643E-1,3.87474E-1,1.2910287E-1,8.460098E-2,2.8933516E-1,2.9393977E-1,7.227412E-1,3.004885E-1,3.9474323E-1,3.911155E-1,1.6629677E-2,3.6726545E-3,8.0511254E-1,2.7117318E-1,-4.5694884E-2,1.5214911E-1,-1.0401437E-2,1.8185653E-2,8.022393E-2,5.8938557E-1,3.0315742E-1,5.024377E-1,1.666965E-1,4.511495E-1,3.9316106E-1,2.4383704E-1,8.4718007E-1,3.911155E-1,4.0189806E-1,5.431417E-2,2.909988E-1,1.6E1,-8.559694E-3,1.547102E-1,2.740038E-1,4.7522962E-1,2.2672765E-1,1.7E1,2.3315154E-1,7.613217E-1,-4.5481965E-2,1.478994E-1,3.123233E-1,-3.121696E-2,-4.4636175E-2,-4.0626034E-2,-3.1655878E-2,-3.491613E-3,-4.6111543E-2,-2.1029461E-2,9.938069E-3,-4.319434E-2,1.4467208E-1,-4.0930867E-2,-3.0102795E-2,-4.1733477E-2,-1.0322871E-2,9.840991E-3,-3.6611397E-2,9.797879E-3,6.611829E-2,-3.927318E-2,1.2800102E-1,-4.3213733E-2,1.3517213E-1,-3.3899385E-2,2.6797483E-2,4.0642034E-2,-3.9421216E-2,6.3130218E-3,1.17367215E-1,1.0924378E-1,-4.986168E-3,-4.27965E-2,-1.6192479E-2,5.4669302E-2,1.5862475E-1,7.726924E-2,1.4783436E-1,-1.3645235E-3,9.190945E-2,1.2143615E-2,-3.4774322E-2,-3.3288855E-2,1.9006435E-2,-3.1830583E-2,3.100567E-2,6.3645735E-2,1.1275794E-1,1.4504772E-1,4.307388E-3,6.9150105E-2,1.5579581E-1,1.445382E-1,1.5689926E-2,1.267777E-1,-1.1508929E-3,2.151112E-3,-3.6613528E-2,8.010248E-2,1.5624845E-1,-2.0280035E-2,3.7556175E-2,-3.5737086E-2,-4.5411218E-2,1.07285544E-1,1.5518138E-1,-3.8544133E-2,1.1104812E-1,6.4564176E-2,1.4205104E-1,-6.0147704E-3,1.3009675E-1,8.24594E-2,1.4724313E-1,7.268466E-2,-2.9482285E-2,1.2331195E-1,1.7836096E-2,1.4486502E-1,7.121502E-2,1.3009939E-1,-3.8760868E-3,4.8250197E-3,9.646163E-2,-4.1411452E-2,-6.2536094E-3,-1.7618913E-2,-4.3461557E-2,8.937873E-2,-1.1053789E-2],"split_indices":[0,0,4,0,4,7,5,0,7,7,5,5,4,7,7,0,7,5,7,7,5,7,7,0,4,5,4,4,7,5,5,0,7,5,7,7,4,4,4,5,5,4,7,4,0,5,5,1,7,5,7,7,7,7,0,1,0,4,0,4,5,4,0,0,7,7,4,5,5,1,1,5,0,5,7,5,0,1,4,4,5,4,4,5,0,7,4,7,0,0,0,1,7,1,4,1,4,4,7,5,7,5,5,5,5,0,0,5,5,1,5,0,7,4,0,0,1,0,0,0,0,0,0,0,0,0,0,0,0,0,0,0,0,0,0,0,0,0,0,0,0,0,0,0,0,0,0,0,0,0,0,0,0,0,0,0,0,0,0,0,0,0,0,0,0,0,0,0,0,0,0,0,0,0,0,0,0,0,0,0,0,0,0,0,0,0,0,0,0,0,0,0,0,0,0,0,0,0,0,0,0,0,0,0,0],"split_type":[0,0,0,0,0,0,0,0,0,0,0,0,0,0,0,0,0,0,0,0,0,0,0,0,0,0,0,0,0,0,0,0,0,0,0,0,0,0,0,0,0,0,0,0,0,0,0,0,0,0,0,0,0,0,0,0,0,0,0,0,0,0,0,0,0,0,0,0,0,0,0,0,0,0,0,0,0,0,0,0,0,0,0,0,0,0,0,0,0,0,0,0,0,0,0,0,0,0,0,0,0,0,0,0,0,0,0,0,0,0,0,0,0,0,0,0,0,0,0,0,0,0,0,0,0,0,0,0,0,0,0,0,0,0,0,0,0,0,0,0,0,0,0,0,0,0,0,0,0,0,0,0,0,0,0,0,0,0,0,0,0,0,0,0,0,0,0,0,0,0,0,0,0,0,0,0,0,0,0,0,0,0,0,0,0,0,0,0,0,0,0,0,0,0,0,0,0,0,0,0,0,0,0,0,0],"sum_hessian":[1.0781825E5,7.721094E4,3.0607314E4,6.599202E4,1.1218912E4,2.7151639E4,3.4556758E3,5.997449E4,6.017537E3,8.51177E3,2.7071418E3,2.334855E4,3.8030874E3,4.609067E2,2.994769E3,5.356332E4,6.411167E3,4.0413672E3,1.97617E3,7.1130645E3,1.3987052E3,1.4032988E2,2.566812E3,2.2044047E4,1.3045042E3,3.4826206E3,3.2046674E2,1.8639168E2,2.74515E2,2.8909548E3,1.03814384E2,4.6748504E4,6.8148184E3,4.8890137E3,1.5221533E3,2.5100598E3,1.5313074E3,1.1458888E3,8.302813E2,4.0910332E3,3.0220312E3,1.345381E3,5.3324154E1,1.0364663E2,3.668325E1,2.544147E3,2.2665031E1,6.6161646E3,1.5427882E4,2.5154108E2,1.0529631E3,3.3121328E3,1.7048776E2,8.592386E1,2.3454288E2,1.22394424E2,6.3997257E1,1.0520433E2,1.693107E2,3.439564E2,2.5469983E3,9.6903305E1,6.9110775E0,5.123216E3,1.6916029E3,3.1863657E3,1.702648E3,6.199934E2,9.0215985E2,1.2329332E3,1.2771266E3,8.906912E1,1.4422383E3,9.868553E2,1.5903351E2,8.142991E2,1.5982225E1,3.3777766E3,7.132568E2,1.4901719E3,1.5318594E3,1.3134597E3,3.1921274E1,4.8916473E1,4.407682E0,6.8197426E1,3.54492E1,2.8093158E2,2.2632153E3,1.8472666E1,4.1923656E0,2.864087E2,6.329756E3,1.3384279E4,2.0436028E3,2.1927612E2,3.226495E1,1.002494E3,5.046904E1,1.4381141E3,1.8740188E3,1.5985811E2,1.0629658E1,5.786355E1,2.8060308E1,1.1264335E2,9.751076E0,5.0803436E1,1.3193822E1,8.901043E1,1.6193907E1,1.8222887E2,1.6172752E2,6.8904456E2,1.8579539E3,8.837333E1,8.529978E0,8.360257E2,8.555772E2,1.6759828E3,1.5103829E3,5.260166E1,1.6500463E3,2.5897974E2,3.6101367E2,8.958609E2,6.2989664E0,3.8984988E2,8.430833E2,1.9980098E2,1.0773256E3,4.80084E1,4.106072E1,6.318778E2,3.549775E2,1.5502545E2,4.008063E0,8.0434705E2,9.951985E0,5.1871027E2,2.8590662E3,5.0656883E1,6.625999E2,1.1181559E3,3.7201596E2,1.4220624E3,1.0979709E2,1.2589392E3,5.4520588E1,1.3597354E1,1.8323921E1,7.779925E0,4.1136547E1,9.830488E0,5.836694E1,9.898441E0,2.555076E1,2.4627324E2,3.4658337E1,1.7104704E2,1.15361664E2,1.1486835E3,5.1810723E3,1.3290547E4,9.373197E1,1.3441675E3,6.9943524E2,2.0392221E2,1.5353905E1,5.795288E0,2.6469662E1,2.2033627E2,7.821578E2,7.053468E0,4.341557E1,1.154892E3,2.8322217E2,8.092738E2,1.064745E3,2.1125399E1,1.3873271E2,4.2306128E0,6.3990455E0,8.193512E0,4.9670036E1,2.0328207E1,7.7321024E0,4.901632E1,6.362703E1,5.6273885E0,4.517605E1,8.941048E0,4.2527733E0,8.203357E1,6.9768605E0,6.0366683E0,1.0157238E1,1.3607735E2,4.6151516E1,1.3315828E2,2.8569242E1,2.6542105E2,4.2362347E2,4.273998E0,4.2559795E0],"tree_param":{"num_deleted":"0","num_feature":"8","num_nodes":"205","size_leaf_vector":"1"}},{"base_weights":[-2.6199454E-1,-5.896378E-1,2.0813792E0,-6.016706E-1,1.00147665E-1,2.190606E0,-5.811365E-1,-4.5732897E-2,-4.7751465E-1,8.5855794E-1,-5.796535E-1,2.215323E0,-9.352221E-2,9.147687E-2,-4.546906E-2,-5.6326166E-2,-5.5289286E-1,1.4578131E0,-2.1059665E-1,4.7904152E-1,-4.508398E-2,2.2206388E0,-4.4015337E-2,-3.2303417E-1,1.6118735E0,4.952373E-1,-4.616564E-1,-4.2660743E-1,-4.5622822E-2,1.5385869E0,-4.330164E-2,4.160108E-1,-4.6917513E-1,8.705233E-2,-3.753414E-2,1.9908543E0,1.703424E-1,8.864696E-2,-4.199001E-2,1.505021E-1,5.2133195E-2,6.8900865E-1,-4.2159867E-2,3.7581157E-2,-4.3329965E-2,9.897541E-4,-3.889342E-2,1.1808968E0,1.7343527E0,-6.4143285E-2,8.444707E-1,-2.3577712E-1,-4.367136E-2,2.0506928E0,5.7136077E-1,-3.918973E-2,5.3498644E-1,3.3138875E-2,8.275608E-2,-2.1599744E-2,3.7895806E-2,1.1374256E-1,6.6808924E-2,1.4070705E-1,9.727471E-2,8.24728E-3,-4.125495E-2,8.763631E-2,1.8422574E-2,-2.5909819E-2,1.6830008E-2,1.5890107E-1,1.2155733E-1,9.961183E-3,6.826817E-2,8.670254E-2,1.7618233E-2],"categories":[],"categories_nodes":[],"categories_segments":[],"categories_sizes":[],"default_left":[0,0,0,0,0,0,0,0,0,0,0,0,0,0,0,0,0,0,0,0,0,0,0,0,0,0,0,0,0,0,0,0,0,0,0,0,0,0,0,0,0,0,0,0,0,0,0,0,0,0,0,0,0,0,0,0,0,0,0,0,0,0,0,0,0,0,0,0,0,0,0,0,0,0,0,0,0],"id":8,"left_children":[1,3,5,7,9,11,13,-1,15,17,19,21,23,-1,-1,25,27,29,31,33,-1,35,-1,37,39,41,43,45,-1,47,-1,49,51,-1,-1,53,-1,55,-1,-1,-1,57,-1,59,-1,-1,-1,61,63,65,67,69,-1,71,73,-1,75,-1,-1,-1,-1,-1,-1,-1,-1,-1,-1,-1,-1,-1,-1,-1,-1,-1,-1,-1,-1],"loss_changes":[7.552417E4,7.163457E2,3.5103281E3,1.6197266E1,7.6377997E2,6.5459766E2,1.6577927E1,0E0,3.365486E1,4.489084E2,1.2711304E1,1.7170703E2,4.9463997E1,0E0,0E0,3.6485596E1,5.2991943E0,7.443451E1,4.108466E1,8.055935E0,0E0,6.45625E1,0E0,1.0601581E1,3.8099174E0,1.4476244E1,5.178026E0,9.67894E0,0E0,2.8195374E1,0E0,1.5329252E1,4.331764E0,0E0,0E0,9.9242676E1,0E0,1.1292705E1,0E0,0E0,0E0,5.491583E0,0E0,2.8102612E0,0E0,0E0,0E0,1.3600342E1,1.2822388E1,3.0427487E0,7.083393E0,2.8872795E0,0E0,1.9605957E1,7.0068016E0,0E0,4.1460624E0,0E0,0E0,0E0,0E0,0E0,0E0,0E0,0E0,0E0,0E0,0E0,0E0,0E0,0E0,0E0,0E0,0E0,0E0,0E0,0E0],"parents":[2147483647,0,0,1,1,2,2,3,3,4,4,5,5,6,6,8,8,9,9,10,10,11,11,12,12,15,15,16,16,17,17,18,18,19,19,21,21,23,23,24,24,25,25,26,26,27,27,29,29,31,31,32,32,35,35,37,37,41,41,43,43,47,47,48,48,49,49,50,50,51,51,53,53,54,54,56,56],"right_children":[2,4,6,8,10,12,14,-1,16,18,20,22,24,-1,-1,26,28,30,32,34,-1,36,-1,38,40,42,44,46,-1,48,-1,50,52,-1,-1,54,-1,56,-1,-1,-1,58,-1,60,-1,-1,-1,62,64,66,68,70,-1,72,74,-1,76,-1,-1,-1,-1,-1,-1,-1,-1,-1,-1,-1,-1,-1,-1,-1,-1,-1,-1,-1,-1],"split_conditions":[6.8707407E-1,6.3015074E-1,4.1697863E-1,5.986129E-1,3.3266088E-1,1.2E1,1.1291451E-1,-4.5732897E-2,5E0,8E0,1.000489E-1,4.5577896E-1,8.7094635E-1,9.147687E-2,-4.546906E-2,2.2120139E-1,2.9174134E-1,4.009659E-1,1E1,7E0,-4.508398E-2,7.459227E-1,-4.4015337E-2,1.4E1,1.3E1,3.9736122E-1,1.7825647E-1,7E0,-4.5622822E-2,6.5659356E-1,-4.330164E-2,6.5659356E-1,1.2E1,8.705233E-2,-3.753414E-2,1E1,1.703424E-1,7.316605E-1,-4.199001E-2,1.505021E-1,5.2133195E-2,6.1903566E-1,-4.2159867E-2,3E0,-4.3329965E-2,9.897541E-4,-3.889342E-2,4E0,6E0,2.2672765E-1,1.5174665E-1,6.7192763E-1,-4.367136E-2,8E0,7.1766895E-1,-3.918973E-2,4.1717183E-2,3.3138875E-2,8.275608E-2,-2.1599744E-2,3.7895806E-2,1.1374256E-1,6.6808924E-2,1.4070705E-1,9.727471E-2,8.24728E-3,-4.125495E-2,8.763631E-2,1.8422574E-2,-2.5909819E-2,1.6830008E-2,1.5890107E-1,1.2155733E-1,9.961183E-3,6.826817E-2,8.670254E-2,1.7618233E-2],"split_indices":[1,1,5,1,5,0,4,0,0,0,4,4,1,0,0,5,4,2,0,0,0,1,0,0,0,2,4,0,0,1,0,1,0,0,0,0,0,1,0,0,0,1,0,0,0,0,0,0,0,5,2,1,0,0,1,0,2,0,0,0,0,0,0,0,0,0,0,0,0,0,0,0,0,0,0,0,0],"split_type":[0,0,0,0,0,0,0,0,0,0,0,0,0,0,0,0,0,0,0,0,0,0,0,0,0,0,0,0,0,0,0,0,0,0,0,0,0,0,0,0,0,0,0,0,0,0,0,0,0,0,0,0,0,0,0,0,0,0,0,0,0,0,0,0,0,0,0,0,0,0,0,0,0,0,0,0,0],"sum_hessian":[9.836298E4,8.629783E4,1.2065148E4,8.481836E4,1.479468E3,1.1589863E4,4.752847E2,8.3758336E4,1.0600282E3,6.9917773E2,7.8029034E2,1.1465819E4,1.2404399E2,4.2414355E0,4.7104327E2,1.6117615E2,8.98852E2,4.478159E2,2.5136182E2,1.048549E1,7.698049E2,1.1444267E4,2.155247E1,1.1004476E2,1.3999229E1,6.817859E1,9.299757E1,2.5358192E2,6.452701E2,4.3090332E2,1.6912586E1,7.324938E1,1.7811243E2,6.1095595E0,4.37593E0,1.1811797E3,1.0263087E4,3.9756416E1,7.0288345E1,9.153812E0,4.845417E0,5.7859283E1,1.03193035E1,1.6895247E1,7.610232E1,4.1792797E1,2.1178912E2,1.5490446E2,2.7599884E2,3.4941948E1,3.8307438E1,5.6947308E1,1.2116512E2,1.1329747E3,4.8204994E1,1.6801985E1,2.2954432E1,3.6873436E1,2.0985846E1,1.0178395E1,6.7168503E0,7.304103E1,8.186344E1,2.1494844E2,6.10504E1,2.6256495E1,8.685452E0,2.4630096E1,1.3677341E1,4.6447186E1,1.0500122E1,1.0254812E3,1.0749352E2,2.1227575E1,2.6977417E1,6.6994004E0,1.6255032E1],"tree_param":{"num_deleted":"0","num_feature":"8","num_nodes":"77","size_leaf_vector":"1"}},{"base_weights":[3.100323E-1,-4.3951648E-1,1.4525378E0,-5.7720274E-1,1.1040867E-1,1.6221524E0,-3.47664E-1,-6.124973E-1,-3.9303014E-1,5.83041E-1,-5.106093E-1,1.687499E0,-3.4194052E-1,6.213046E-1,-5.9339815E-1,-6.298559E-1,-5.5470383E-1,2.8735334E-1,-4.5542663E-1,9.232009E-1,-4.7787485E-1,-8.757752E-2,-6.097309E-1,1.7260301E0,-2.4562816E-1,-4.355077E-1,1.2704394E0,1.550613E-2,1.4999775E0,-6.0777193E-1,5.0484324E-1,-4.8253532E-2,-6.0821384E-1,-1.8486544E-1,-5.712508E-1,8.0474025E-1,-5.780714E-1,-3.2572576E-1,-6.1168134E-1,1.0841302E0,-1.7950852E-1,-7.7462316E-2,-5.928528E-1,1.1300786E0,-2.0090915E-1,5.687452E-1,-6.145664E-1,1.4617661E0,1.8089049E0,-3.8963723E-1,1.1714252E0,1.6369542E-2,-4.624649E-2,1.2504295E-1,-2.6620742E-2,4.278043E-1,-3.808788E-1,1.6402044E0,-1.8906789E-1,5.25263E-1,-6.121658E-1,1.4228754E0,-3.957344E-1,-5.0082266E-1,-6.173993E-1,8.111013E-1,-5.9998846E-1,-5.273455E-1,-4.7475737E-2,1.1937068E0,-3.958476E-1,-2.7571365E-1,-4.8229035E-2,-8.83722E-2,-5.933453E-1,-4.2930287E-1,-6.263266E-1,1.6015782E0,8.9754283E-1,2.9479495E-1,-4.9950293E-1,1.2217261E0,-1.8545379E-1,-4.3288827E-1,-4.803888E-2,1.3719386E0,-2.6249917E-2,6.675643E-2,-5.1735586E-1,1.0944658E-1,-3.6820766E-2,-4.917785E-1,-4.8217226E-2,1.5346587E0,8.2302344E-1,1.7120817E0,1.8358734E0,6.686936E-2,-5.876562E-1,1.6206906E0,-4.562637E-2,-1.635441E-1,9.568419E-1,8.40373E-1,-4.4985595E-1,9.814568E-2,-4.260132E-1,1.7452033E0,-5.6571003E-2,3.9411042E-2,-3.8731907E-2,1.2515715E-1,-4.209492E-2,-4.426994E-1,-4.788136E-2,1.2673205E-1,1.9952593E-2,2.2395857E-2,-4.587814E-2,-9.236828E-3,-4.610182E-2,-4.5091663E-2,-4.8209574E-2,9.955631E-2,-2.5923962E-2,-7.55448E-3,-4.8236784E-2,-3.1002114E-2,-4.614699E-2,1.2825905E-1,6.0349505E-2,3.9684236E-2,-4.04862E-2,4.1594345E-2,-3.1978745E-2,1.7114995E-2,-3.8402483E-2,-3.191145E-2,-4.7965582E-2,-1.9496836E-2,-4.675981E-2,-4.2897187E-2,-4.855106E-2,1.3371833E-1,1.0452021E-1,9.252934E-2,5.3606525E-2,9.76631E-2,1.1179802E-2,5.365852E-2,-4.0435858E-2,1.028858E-1,1.612165E-2,-3.179801E-3,-3.570382E-2,8.090558E-2,-3.5517424E-2,1.1350085E-1,-5.5823172E-3,3.7116066E-2,-3.421499E-2,-2.3019413E-2,-4.7546975E-2,-1.8457124E-2,-4.672435E-2,1.2092934E-1,7.363151E-2,1.23984985E-1,5.0105225E-2,1.3220254E-1,1.0342336E-1,1.3677199E-1,1.403322E-1,5.8719963E-2,-1.7904004E-2,1.004809E-2,-4.548863E-2,1.3657366E-1,5.1968057E-2,8.977077E-2,-1.6241457E-2,8.9033365E-2,-1.4148522E-3,8.835773E-2,2.3249682E-2,4.5489948E-4,-4.5505237E-2,2.6541955E-3,-3.7969865E-2,1.1100848E-1,1.3939981E-1,4.335439E-2,-4.4480562E-2,1.5633645E-2,-4.3687712E-2],"categories":[],"categories_nodes":[],"categories_segments":[],"categories_sizes":[],"default_left":[0,0,0,0,0,0,0,0,0,0,0,0,0,0,0,0,0,0,0,0,0,0,0,0,0,0,0,0,0,0,0,0,0,0,0,0,0,0,0,0,0,0,0,0,0,0,0,0,0,0,0,0,0,0,0,0,0,0,0,0,0,0,0,0,0,0,0,0,0,0,0,0,0,0,0,0,0,0,0,0,0,0,0,0,0,0,0,0,0,0,0,0,0,0,0,0,0,0,0,0,0,0,0,0,0,0,0,0,0,0,0,0,0,0,0,0,0,0,0,0,0,0,0,0,0,0,0,0,0,0,0,0,0,0,0,0,0,0,0,0,0,0,0,0,0,0,0,0,0,0,0,0,0,0,0,0,0,0,0,0,0,0,0,0,0,0,0,0,0,0,0,0,0,0,0,0,0,0,0,0,0,0,0,0,0,0,0,0,0,0,0,0,0,0,0],"id":9,"left_children":[1,3,5,7,9,11,13,15,17,19,21,23,25,27,29,31,33,35,37,39,41,43,45,47,49,51,53,55,57,59,61,-1,63,65,67,69,71,73,75,77,79,81,83,85,87,89,91,93,95,97,99,101,-1,-1,-1,103,105,107,109,111,113,115,117,119,121,123,125,127,-1,129,131,133,-1,135,137,139,141,143,145,147,149,151,153,155,-1,157,-1,159,161,-1,-1,163,-1,165,167,169,171,173,175,177,-1,179,181,183,185,-1,187,189,191,-1,-1,-1,-1,193,-1,-1,-1,-1,-1,-1,-1,-1,-1,-1,-1,-1,-1,-1,-1,-1,-1,-1,-1,-1,-1,-1,-1,-1,-1,-1,-1,-1,-1,-1,-1,-1,-1,-1,-1,-1,-1,-1,-1,-1,-1,-1,-1,-1,-1,-1,-1,-1,-1,-1,-1,-1,-1,-1,-1,-1,-1,-1,-1,-1,-1,-1,-1,-1,-1,-1,-1,-1,-1,-1,-1,-1,-1,-1,-1,-1,-1,-1,-1,-1,-1],"loss_changes":[1.0485885E5,5.5985137E3,1.4812008E4,3.8414648E2,4.346133E3,5.6903438E3,9.951125E2,4.943164E1,4.0397607E2,3.0347493E3,2.6827588E2,3.1961562E3,2.1602997E2,4.5010678E2,5.2921997E1,5.086914E0,7.008765E1,3.5854404E2,1.7640039E2,1.1300786E3,9.396518E1,1.6802629E2,2.9891968E1,9.18625E2,1.7173639E2,1.0651602E2,4.8871346E1,8.2130585E1,8.2043274E1,1.6703003E1,3.6614494E1,0E0,8.5373535E0,2.0418596E2,2.6167969E1,2.343934E2,5.0902557E0,3.025392E2,1.028479E1,5.35022E2,1.2334651E2,6.430208E1,1.0078918E1,3.749794E1,9.4329666E1,2.072382E1,1.3280273E1,4.6656055E2,8.046875E1,6.898031E1,6.285849E1,6.398993E1,0E0,0E0,0E0,8.956608E1,1.9928513E1,5.688434E1,6.5053263E0,1.7030941E1,1.0503174E1,5.8526E0,3.477999E0,2.88712E1,3.0783691E0,8.460604E1,6.258545E0,5.8610474E1,0E0,7.364172E1,1.5945684E1,6.2630696E0,0E0,3.3189792E2,1.4920532E1,9.422142E0,2.751709E0,5.077246E1,2.5045801E2,4.7763927E1,2.020874E1,4.5173836E0,1.7291523E1,1.7884956E1,0E0,1.6269104E1,0E0,1.3252678E2,1.1784485E1,0E0,0E0,2.3722885E1,0E0,3.0558008E2,1.3474841E2,7.4771484E1,8.7265625E0,4.9854645E1,4.8145905E0,9.2886505E0,0E0,2.1944069E1,1.2909145E1,2.877417E1,5.44738E0,0E0,8.650871E0,5.1968384E0,6.846486E0,0E0,0E0,0E0,0E0,2.9605576E1,0E0,0E0,0E0,0E0,0E0,0E0,0E0,0E0,0E0,0E0,0E0,0E0,0E0,0E0,0E0,0E0,0E0,0E0,0E0,0E0,0E0,0E0,0E0,0E0,0E0,0E0,0E0,0E0,0E0,0E0,0E0,0E0,0E0,0E0,0E0,0E0,0E0,0E0,0E0,0E0,0E0,0E0,0E0,0E0,0E0,0E0,0E0,0E0,0E0,0E0,0E0,0E0,0E0,0E0,0E0,0E0,0E0,0E0,0E0,0E0,0E0,0E0,0E0,0E0,0E0,0E0,0E0,0E0,0E0,0E0,0E0,0E0,0E0,0E0,0E0,0E0,0E0,0E0,0E0,0E0,0E0],"parents":[2147483647,0,0,1,1,2,2,3,3,4,4,5,5,6,6,7,7,8,8,9,9,10,10,11,11,12,12,13,13,14,14,15,15,16,16,17,17,18,18,19,19,20,20,21,21,22,22,23,23,24,24,25,25,26,26,27,27,28,28,29,29,30,30,32,32,33,33,34,34,35,35,36,36,37,37,38,38,39,39,40,40,41,41,42,42,43,43,44,44,45,45,46,46,47,47,48,48,49,49,50,50,51,51,55,55,56,56,57,57,58,58,59,59,60,60,61,61,62,62,63,63,64,64,65,65,66,66,67,67,69,69,70,70,71,71,73,73,74,74,75,75,76,76,77,77,78,78,79,79,80,80,81,81,82,82,83,83,85,85,87,87,88,88,91,91,93,93,94,94,95,95,96,96,97,97,98,98,99,99,101,101,102,102,103,103,104,104,106,106,107,107,108,108,113,113],"right_children":[2,4,6,8,10,12,14,16,18,20,22,24,26,28,30,32,34,36,38,40,42,44,46,48,50,52,54,56,58,60,62,-1,64,66,68,70,72,74,76,78,80,82,84,86,88,90,92,94,96,98,100,102,-1,-1,-1,104,106,108,110,112,114,116,118,120,122,124,126,128,-1,130,132,134,-1,136,138,140,142,144,146,148,150,152,154,156,-1,158,-1,160,162,-1,-1,164,-1,166,168,170,172,174,176,178,-1,180,182,184,186,-1,188,190,192,-1,-1,-1,-1,194,-1,-1,-1,-1,-1,-1,-1,-1,-1,-1,-1,-1,-1,-1,-1,-1,-1,-1,-1,-1,-1,-1,-1,-1,-1,-1,-1,-1,-1,-1,-1,-1,-1,-1,-1,-1,-1,-1,-1,-1,-1,-1,-1,-1,-1,-1,-1,-1,-1,-1,-1,-1,-1,-1,-1,-1,-1,-1,-1,-1,-1,-1,-1,-1,-1,-1,-1,-1,-1,-1,-1,-1,-1,-1,-1,-1,-1,-1,-1,-1,-1],"split_conditions":[4.826686E-1,3.552984E-1,5.291752E-1,2.8430972E-1,4.2107183E-1,3.7018466E-1,3.703084E-1,2.1189868E-1,1.13751784E-1,3.1396988E-1,3.465744E-1,5.8064044E-1,8.168576E-1,6.715691E-1,8.587257E-1,1.5401071E-1,6.7521766E-2,3.1106284E-1,4.1339347E-1,4.6482575E-1,3.596229E-1,9.404947E-2,6.4180233E-3,6.061903E-1,7.603073E-1,4.1243118E-1,4.398279E-1,5.924374E-1,6.7661005E-1,6.4180233E-3,5.0680566E-1,-4.8253532E-2,1.16341546E-1,2.751877E-1,4.1086683E-1,4.4204584E-1,3.8713256E-1,2.8147542E-1,2.0445862E-1,1.291716E-1,5.4213226E-1,7.454868E-2,3.9943334E-1,3.337924E-1,2.5791177E-1,5.241255E-1,4.7481093E-1,2.8147542E-1,6.7976356E-1,6.489135E-1,7.0026135E-1,6.927566E-1,-4.624649E-2,1.2504295E-1,-2.6620742E-2,2.7932346E-1,2.3460593E-2,3.337924E-1,1.9393624E-1,4.9559954E-1,4.6482575E-1,3.3531603E-1,5.6110203E-1,2.2486573E-1,3.78748E-1,4.3776685E-1,3.4137583E-1,2.2290327E-1,-4.7475737E-2,4.7280345E-2,1.8396421E-1,6.4180233E-3,-4.8229035E-2,4.1305044E-1,3.500717E-1,2.8147542E-1,4.464179E-1,6.7521766E-2,7.33361E-2,9.708898E-2,6.365057E-2,4.0189806E-1,3.6403763E-1,4.2867765E-2,-4.803888E-2,6.059887E-1,-2.6249917E-2,5.291752E-1,3.3761E-1,1.0944658E-1,-3.6820766E-2,5.291752E-1,-4.8217226E-2,4.210577E-1,9.099339E-2,2.8147542E-1,7.652375E-1,2.1367669E-1,1.6718607E-2,3.4929997E-1,-4.562637E-2,4.2867765E-2,4.0189806E-1,2.8832608E-1,3.266377E-1,9.814568E-2,1.5887296E-1,7.367447E-1,3.815059E-1,3.9411042E-2,-3.8731907E-2,1.2515715E-1,-4.209492E-2,5.662168E-1,-4.788136E-2,1.2673205E-1,1.9952593E-2,2.2395857E-2,-4.587814E-2,-9.236828E-3,-4.610182E-2,-4.5091663E-2,-4.8209574E-2,9.955631E-2,-2.5923962E-2,-7.55448E-3,-4.8236784E-2,-3.1002114E-2,-4.614699E-2,1.2825905E-1,6.0349505E-2,3.9684236E-2,-4.04862E-2,4.1594345E-2,-3.1978745E-2,1.7114995E-2,-3.8402483E-2,-3.191145E-2,-4.7965582E-2,-1.9496836E-2,-4.675981E-2,-4.2897187E-2,-4.855106E-2,1.3371833E-1,1.0452021E-1,9.252934E-2,5.3606525E-2,9.76631E-2,1.1179802E-2,5.365852E-2,-4.0435858E-2,1.028858E-1,1.612165E-2,-3.179801E-3,-3.570382E-2,8.090558E-2,-3.5517424E-2,1.1350085E-1,-5.5823172E-3,3.7116066E-2,-3.421499E-2,-2.3019413E-2,-4.7546975E-2,-1.8457124E-2,-4.672435E-2,1.2092934E-1,7.363151E-2,1.23984985E-1,5.0105225E-2,1.3220254E-1,1.0342336E-1,1.3677199E-1,1.403322E-1,5.8719963E-2,-1.7904004E-2,1.004809E-2,-4.548863E-2,1.3657366E-1,5.1968057E-2,8.977077E-2,-1.6241457E-2,8.9033365E-2,-1.4148522E-3,8.835773E-2,2.3249682E-2,4.5489948E-4,-4.5505237E-2,2.6541955E-3,-3.7969865E-2,1.1100848E-1,1.3939981E-1,4.335439E-2,-4.4480562E-2,1.5633645E-2,-4.3687712E-2],"split_indices":[3,3,4,3,4,7,5,3,1,7,5,5,3,3,3,3,1,7,4,5,7,1,1,3,3,7,7,4,4,1,5,0,1,7,1,5,7,7,5,1,5,1,7,7,7,5,5,7,3,5,5,3,0,0,0,7,1,7,1,5,5,1,5,7,1,4,7,7,0,1,4,1,0,1,7,7,5,1,7,1,1,5,5,1,0,4,0,4,7,0,0,4,0,5,1,7,3,1,4,4,0,1,5,1,7,0,1,3,7,0,0,0,0,4,0,0,0,0,0,0,0,0,0,0,0,0,0,0,0,0,0,0,0,0,0,0,0,0,0,0,0,0,0,0,0,0,0,0,0,0,0,0,0,0,0,0,0,0,0,0,0,0,0,0,0,0,0,0,0,0,0,0,0,0,0,0,0,0,0,0,0,0,0,0,0,0,0,0,0,0,0,0,0,0,0],"split_type":[0,0,0,0,0,0,0,0,0,0,0,0,0,0,0,0,0,0,0,0,0,0,0,0,0,0,0,0,0,0,0,0,0,0,0,0,0,0,0,0,0,0,0,0,0,0,0,0,0,0,0,0,0,0,0,0,0,0,0,0,0,0,0,0,0,0,0,0,0,0,0,0,0,0,0,0,0,0,0,0,0,0,0,0,0,0,0,0,0,0,0,0,0,0,0,0,0,0,0,0,0,0,0,0,0,0,0,0,0,0,0,0,0,0,0,0,0,0,0,0,0,0,0,0,0,0,0,0,0,0,0,0,0,0,0,0,0,0,0,0,0,0,0,0,0,0,0,0,0,0,0,0,0,0,0,0,0,0,0,0,0,0,0,0,0,0,0,0,0,0,0,0,0,0,0,0,0,0,0,0,0,0,0,0,0,0,0,0,0,0,0,0,0,0,0],"sum_hessian":[1.22444914E5,7.3937984E4,4.8506926E4,5.9132715E4,1.48052705E4,4.433024E4,4.176689E3,4.962108E4,9.511637E3,8.407055E3,6.3982163E3,4.290297E4,1.4272667E3,8.4463434E2,3.332055E3,3.815205E4,1.146903E4,7.987126E2,8.712924E3,6.3660474E3,2.0410068E3,1.2149459E3,5.1832705E3,4.2064645E4,8.3832556E2,1.3496744E3,7.759236E1,5.0054956E2,3.4408475E2,3.2894492E3,4.2605698E1,2.9184816E4,8.967231E3,4.9168332E2,1.0977348E4,4.9991357E2,2.9879898E2,4.7626885E3,3.9502354E3,5.555322E3,8.107259E2,4.556994E2,1.5853074E3,1.0268694E2,1.112259E3,2.0704334E1,5.1625664E3,1.0046825E4,3.2017818E4,7.6164764E2,7.6677956E1,3.762577E2,9.734167E2,6.2881176E1,1.4711187E1,2.4531104E2,2.5523853E2,3.1773486E2,2.6349888E1,1.2249286E1,3.2772E3,2.0811195E1,2.1794504E1,7.109314E2,8.2563E3,1.4436578E2,3.4731754E2,6.108979E3,4.868368E3,3.7758826E2,1.2232534E2,4.9080624E1,2.4971835E2,2.5247769E3,2.2379116E3,2.958847E2,3.6543506E3,1.4702917E3,4.0850298E3,3.2664438E2,4.8408148E2,3.4180363E1,4.2151904E2,3.2453296E2,1.2607744E3,8.829299E1,1.4393952E1,6.0300116E2,5.0925784E2,1.1113706E1,9.59063E0,7.7096783E2,4.391598E3,9.016474E3,1.0303518E3,6.989245E3,